<?xml version="1.0"?>
<opencv_storage>
<cascade>
  <stageType>BOOST</stageType>
  <featureType>LBP</featureType>
  <height>40</height>
  <width>40</width>
  <stageParams>
    <boostType>GAB</boostType>
    <minHitRate>9.9900001287460327e-01</minHitRate>
    <maxFalseAlarm>5.0000000000000000e-01</maxFalseAlarm>
    <weightTrimRate>9.4999999999999996e-01</weightTrimRate>
    <maxDepth>1</maxDepth>
    <maxWeakCount>100</maxWeakCount></stageParams>
  <featureParams>
    <maxCatCount>256</maxCatCount>
    <featSize>1</featSize></featureParams>
  <stageNum>35</stageNum>
  <stages>
    <!-- stage 0 -->
    <_>
      <maxWeakCount>7</maxWeakCount>
      <stageThreshold>-7.7759540081024170e-01</stageThreshold>
      <weakClassifiers>
        <_>
          <internalNodes>
            0 -1 114 -1569744469 -1279316191 1056864189 992837391
            821632650 -1891664073 486490104 492651605</internalNodes>
          <leafValues>
            -1.8565401434898376e-01 7.7620732784271240e-01</leafValues></_>
        <_>
          <internalNodes>
            0 -1 137 470618939 -1075565443 -1493205159 -1682539084
            1046787583 1602158588 788344507 1831339480</internalNodes>
          <leafValues>
            -4.5685827732086182e-01 6.2232434749603271e-01</leafValues></_>
        <_>
          <internalNodes>
            0 -1 57 -1296162061 -608571591 -1501566435 -147473731
            393846442 -1954710202 250423759 -879293254</internalNodes>
          <leafValues>
            -3.3786687254905701e-01 8.1840282678604126e-01</leafValues></_>
        <_>
          <internalNodes>
            0 -1 36 -1965911883 1497894928 537133232 -217775587 704720
            -921529344 344129 -1719125844</internalNodes>
          <leafValues>
            -5.1803058385848999e-01 5.8692228794097900e-01</leafValues></_>
        <_>
          <internalNodes>
            0 -1 232 -924293 -214384641 -1409287239 -30359717 2012116860
            -1671594113 -268673035 -1437860281</internalNodes>
          <leafValues>
            -4.6434527635574341e-01 7.0811182260513306e-01</leafValues></_>
        <_>
          <internalNodes>
            0 -1 32 -1204819013 -541729409 -1342459912 -671482458
            570386141 224231333 396203964 -600173183</internalNodes>
          <leafValues>
            -4.5030146837234497e-01 6.9888311624526978e-01</leafValues></_>
        <_>
          <internalNodes>
            0 -1 231 1939758727 -506730498 -83906699 1626797681
            -1661501531 -268435489 -159559826 -290268166</internalNodes>
          <leafValues>
            -4.7436091303825378e-01 6.7359972000122070e-01</leafValues></_></weakClassifiers></_>
    <!-- stage 1 -->
    <_>
      <maxWeakCount>8</maxWeakCount>
      <stageThreshold>-6.8108367919921875e-01</stageThreshold>
      <weakClassifiers>
        <_>
          <internalNodes>
            0 -1 47 -1901819768 329731343 -1347667399 866335480
            1330387272 223090672 1339971257 1070044671</internalNodes>
          <leafValues>
            -3.1233596801757812e-01 7.3248410224914551e-01</leafValues></_>
        <_>
          <internalNodes>
            0 -1 9 -1296303212 -1883330841 -1074348061 -38155 127858152
            -1107853883 1318457502 501027972</internalNodes>
          <leafValues>
            -4.0384039282798767e-01 6.6378480195999146e-01</leafValues></_>
        <_>
          <internalNodes>
            0 -1 48 1412054303 1937194815 1878996223 2013036379
            -1266774024 -163841 -9457793 1932190947</internalNodes>
          <leafValues>
            -4.4392848014831543e-01 6.3468462228775024e-01</leafValues></_>
        <_>
          <internalNodes>
            0 -1 202 -2125000643 -652668847 5505041 21037440 51343
            -535789440 403215499 -929018368</internalNodes>
          <leafValues>
            -4.8782336711883545e-01 5.7888525724411011e-01</leafValues></_>
        <_>
          <internalNodes>
            0 -1 146 303825553 1023743041 1090621477 1125138457
            1921779818 -931114876 16910515 1183730803</internalNodes>
          <leafValues>
            -5.5808073282241821e-01 5.0458568334579468e-01</leafValues></_>
        <_>
          <internalNodes>
            0 -1 152 -587794734 -600412336 -1112224141 -168874259
            527953495 -42639875 687852765 458205732</internalNodes>
          <leafValues>
            -4.8754084110260010e-01 6.0473084449768066e-01</leafValues></_>
        <_>
          <internalNodes>
            0 -1 201 -2147356294 1342242961 17891600 1543503911
            545431970 42541129 539068478 -905829759</internalNodes>
          <leafValues>
            -5.3817611932754517e-01 5.4593545198440552e-01</leafValues></_>
        <_>
          <internalNodes>
            0 -1 250 402774483 17318144 286310531 419512513 2013286554
            -2147352445 553748737 1158496341</internalNodes>
          <leafValues>
            -6.3545733690261841e-01 5.2402341365814209e-01</leafValues></_></weakClassifiers></_>
    <!-- stage 2 -->
    <_>
      <maxWeakCount>8</maxWeakCount>
      <stageThreshold>-3.9920756220817566e-01</stageThreshold>
      <weakClassifiers>
        <_>
          <internalNodes>
            0 -1 0 -822162214 2147319805 -1073807361 2130427645
            1068941303 -536870913 -16387 1026777363</internalNodes>
          <leafValues>
            -2.4651162326335907e-01 7.5811868906021118e-01</leafValues></_>
        <_>
          <internalNodes>
            0 -1 33 -1816135809 -604787970 263110141 -1645252811
            241136607 -547801254 259968413 -37808748</internalNodes>
          <leafValues>
            -2.7218952775001526e-01 8.4722822904586792e-01</leafValues></_>
        <_>
          <internalNodes>
            0 -1 112 888743295 -1483358241 -354459673 -1429176803
            -1075876039 -1073907723 -583210531 -338900904</internalNodes>
          <leafValues>
            -4.5861408114433289e-01 6.1072415113449097e-01</leafValues></_>
        <_>
          <internalNodes>
            0 -1 208 -1581248129 -607973111 -1342172159 935936081
            159893709 -1434220413 679871529 -1063124776</internalNodes>
          <leafValues>
            -5.2363717555999756e-01 5.6936705112457275e-01</leafValues></_>
        <_>
          <internalNodes>
            0 -1 121 50419932 454103249 335609915 1933820416 45629578
            1266761856 -2146881366 1528463497</internalNodes>
          <leafValues>
            -5.4138827323913574e-01 5.5599367618560791e-01</leafValues></_>
        <_>
          <internalNodes>
            0 -1 194 792697809 1609465661 -16781593 528412145 805273589
            -524419 1040173055 1054750932</internalNodes>
          <leafValues>
            -5.2386075258255005e-01 5.8293694257736206e-01</leafValues></_>
        <_>
          <internalNodes>
            0 -1 140 -2030134799 -268439874 -1208539404 -5785994
            -1880251242 -1610713353 1307793051 1031535825</internalNodes>
          <leafValues>
            -4.3688097596168518e-01 6.5406388044357300e-01</leafValues></_>
        <_>
          <internalNodes>
            0 -1 257 8767772 -1852502016 1147137 1728399105 1359414153
            538028040 151219881 1511735580</internalNodes>
          <leafValues>
            -5.6103849411010742e-01 5.4426324367523193e-01</leafValues></_></weakClassifiers></_>
    <!-- stage 3 -->
    <_>
      <maxWeakCount>8</maxWeakCount>
      <stageThreshold>-7.4377828836441040e-01</stageThreshold>
      <weakClassifiers>
        <_>
          <internalNodes>
            0 -1 20 -822120657 1794965503 -268439822 1861676776
            511651183 1870069607 2147413998 1853279983</internalNodes>
          <leafValues>
            -2.5183373689651489e-01 7.3741793632507324e-01</leafValues></_>
        <_>
          <internalNodes>
            0 -1 62 -1099764850 -1028400068 1711242255 -605093957
            -178849 -252215467 1421884827 -1086490793</internalNodes>
          <leafValues>
            -4.1474160552024841e-01 6.5560489892959595e-01</leafValues></_>
        <_>
          <internalNodes>
            0 -1 164 58930367 -239960043 1225805097 161288578 134252687
            -822050744 -1977415428 208732201</internalNodes>
          <leafValues>
            -5.5343765020370483e-01 5.1536154747009277e-01</leafValues></_>
        <_>
          <internalNodes>
            0 -1 225 285176671 -783276852 16891920 319291402 -1061648709
            537985158 -1568177910 1647989803</internalNodes>
          <leafValues>
            -5.3399306535720825e-01 5.7167506217956543e-01</leafValues></_>
        <_>
          <internalNodes>
            0 -1 128 -758677155 -1588095997 276824089 454361154
            -536692717 -1207164928 -494338035 2108362248</internalNodes>
          <leafValues>
            -5.3172844648361206e-01 5.9402239322662354e-01</leafValues></_>
        <_>
          <internalNodes>
            0 -1 5 -641146008 1345323011 84225 -989773559 -2147385213
            -2113732476 -2137522037 589926731</internalNodes>
          <leafValues>
            -5.8364516496658325e-01 5.6212383508682251e-01</leafValues></_>
        <_>
          <internalNodes>
            0 -1 220 -1087719913 -1121355973 2121268215 -1662395543
            653176745 2046263295 -1780541955 -549487275</internalNodes>
          <leafValues>
            -4.6461129188537598e-01 6.8721467256546021e-01</leafValues></_>
        <_>
          <internalNodes>
            0 -1 116 -2146150958 1905262979 49749 -1852506015 16842944
            705167872 567312518 1329701019</internalNodes>
          <leafValues>
            -5.7350629568099976e-01 5.7068365812301636e-01</leafValues></_></weakClassifiers></_>
    <!-- stage 4 -->
    <_>
      <maxWeakCount>9</maxWeakCount>
      <stageThreshold>-1.1293966770172119e+00</stageThreshold>
      <weakClassifiers>
        <_>
          <internalNodes>
            0 -1 8 -929339896 -1103921156 2076134507 1565900453
            -1564995654 -1078053057 1044291435 1936916773</internalNodes>
          <leafValues>
            -3.2335329055786133e-01 6.8655204772949219e-01</leafValues></_>
        <_>
          <internalNodes>
            0 -1 67 -1552042823 -202653842 805203865 1031765567
            -1443447413 -650283148 1698652142 1230888095</internalNodes>
          <leafValues>
            -3.5736873745918274e-01 7.2179716825485229e-01</leafValues></_>
        <_>
          <internalNodes>
            0 -1 178 -1815068971 1954939077 -662669891 -2017457143
            403380748 -939474941 268853424 766017848</internalNodes>
          <leafValues>
            -5.5107176303863525e-01 5.2478539943695068e-01</leafValues></_>
        <_>
          <internalNodes>
            0 -1 50 -416084435 -185372801 -1216419846 1894021805
            2113735981 -9207938 -26552593 -140312961</internalNodes>
          <leafValues>
            -4.8807567358016968e-01 5.9282016754150391e-01</leafValues></_>
        <_>
          <internalNodes>
            0 -1 186 4229770 287228626 1358959125 1204715661 -1069514740
            855738497 -1602213685 25806265</internalNodes>
          <leafValues>
            -6.0877132415771484e-01 4.5827263593673706e-01</leafValues></_>
        <_>
          <internalNodes>
            0 -1 218 -1157987605 -118872075 -1157644308 -89395265
            -403736834 805273597 -1124401960 -1127150442</internalNodes>
          <leafValues>
            -4.8426067829132080e-01 6.3722312450408936e-01</leafValues></_>
        <_>
          <internalNodes>
            0 -1 4 -1677545009 -2079094767 -2147417838 -1258078189
            570526603 1090535561 -2147434363 51502153</internalNodes>
          <leafValues>
            -5.6371492147445679e-01 5.3068155050277710e-01</leafValues></_>
        <_>
          <internalNodes>
            0 -1 123 703803157 475992061 -1073774603 -1145309186
            788485741 -345014283 -1091586308 -1346777924</internalNodes>
          <leafValues>
            -4.8331654071807861e-01 6.2736803293228149e-01</leafValues></_>
        <_>
          <internalNodes>
            0 -1 17 -248790068 -570404799 180224 438337 1484882090
            973242377 1645314124 726360334</internalNodes>
          <leafValues>
            -5.5959022045135498e-01 5.6909579038619995e-01</leafValues></_></weakClassifiers></_>
    <!-- stage 5 -->
    <_>
      <maxWeakCount>8</maxWeakCount>
      <stageThreshold>-7.0956081151962280e-01</stageThreshold>
      <weakClassifiers>
        <_>
          <internalNodes>
            0 -1 142 1048386109 -1346371586 -1342177539 650104555
            1073733029 1073725055 535691253 762580324</internalNodes>
          <leafValues>
            -4.0338984131813049e-01 6.7120623588562012e-01</leafValues></_>
        <_>
          <internalNodes>
            0 -1 85 2116538105 -1703022595 1337884469 -1652568211
            -411062662 -445153436 -243695715 2103409234</internalNodes>
          <leafValues>
            -3.6898642778396606e-01 7.1945363283157349e-01</leafValues></_>
        <_>
          <internalNodes>
            0 -1 2 336843975 -1862073785 -1727967207 -1786158399 215731
            558530688 268995801 227020809</internalNodes>
          <leafValues>
            -4.9225276708602905e-01 5.5967062711715698e-01</leafValues></_>
        <_>
          <internalNodes>
            0 -1 223 1662584411 889332755 -2147463070 269553764
            -2012624469 -133904378 -1576878069 1041423502</internalNodes>
          <leafValues>
            -5.5360299348831177e-01 5.0289708375930786e-01</leafValues></_>
        <_>
          <internalNodes>
            0 -1 154 656747984 -1727021072 -406898031 -118768391
            527898335 -176816163 492279788 -355637807</internalNodes>
          <leafValues>
            -4.8732545971870422e-01 6.1801898479461670e-01</leafValues></_>
        <_>
          <internalNodes>
            0 -1 1 -107939732 839042084 269484052 1157644418 805409344
            -1962802944 -1608488235 -442913157</internalNodes>
          <leafValues>
            -5.0871855020523071e-01 5.6911820173263550e-01</leafValues></_>
        <_>
          <internalNodes>
            0 -1 156 -804219500 -801079022 17269521 610513 -1073700469
            -2013181949 -1601828181 1281589411</internalNodes>
          <leafValues>
            -5.2758264541625977e-01 5.5619084835052490e-01</leafValues></_>
        <_>
          <internalNodes>
            0 -1 260 -184022661 545292304 -1608474318 -1060765610
            -1535089920 672434336 1099743282 -298351921</internalNodes>
          <leafValues>
            -5.5072164535522461e-01 5.5496352910995483e-01</leafValues></_></weakClassifiers></_>
    <!-- stage 6 -->
    <_>
      <maxWeakCount>8</maxWeakCount>
      <stageThreshold>-4.2117181420326233e-01</stageThreshold>
      <weakClassifiers>
        <_>
          <internalNodes>
            0 -1 92 -1603583088 -189059292 535772799 -1778409491
            753840058 -1099727501 159365978 224021844</internalNodes>
          <leafValues>
            -1.8518517911434174e-01 7.5925928354263306e-01</leafValues></_>
        <_>
          <internalNodes>
            0 -1 187 -1351627853 -1640399699 -285233477 1572077005
            1609504763 -1622182402 1609954552 2111653332</internalNodes>
          <leafValues>
            -3.4834238886833191e-01 6.8666952848434448e-01</leafValues></_>
        <_>
          <internalNodes>
            0 -1 197 -918926785 1367211901 -83890335 418233973
            -1916981641 528481919 -1098982149 2022743435</internalNodes>
          <leafValues>
            -4.5743924379348755e-01 5.8862388134002686e-01</leafValues></_>
        <_>
          <internalNodes>
            0 -1 127 -1129652271 -55955931 -1107918914 1072789240
            -1082228845 -1078493320 935310555 -1666245411</internalNodes>
          <leafValues>
            -4.0094819664955139e-01 6.6017335653305054e-01</leafValues></_>
        <_>
          <internalNodes>
            0 -1 96 462109936 -710673532 -1208254601 2108079357
            1131094966 -63505027 -1502148917 -1440631778</internalNodes>
          <leafValues>
            -4.7002065181732178e-01 5.9050214290618896e-01</leafValues></_>
        <_>
          <internalNodes>
            0 -1 29 -970882764 -1068936895 151048260 -930414572
            872429061 -794752991 -2012723192 -2366581</internalNodes>
          <leafValues>
            -5.4345262050628662e-01 5.4102128744125366e-01</leafValues></_>
        <_>
          <internalNodes>
            0 -1 244 -1946577801 1861942905 -822084655 -1208518916
            -1073858824 1870133119 241546385 -271228548</internalNodes>
          <leafValues>
            -4.9624636769294739e-01 6.3539201021194458e-01</leafValues></_>
        <_>
          <internalNodes>
            0 -1 99 -2104441416 1904300043 268525716 -712847096
            1107362457 528760963 1812070410 248485914</internalNodes>
          <leafValues>
            -5.5951631069183350e-01 5.4275566339492798e-01</leafValues></_></weakClassifiers></_>
    <!-- stage 7 -->
    <_>
      <maxWeakCount>7</maxWeakCount>
      <stageThreshold>-1.0885961055755615e+00</stageThreshold>
      <weakClassifiers>
        <_>
          <internalNodes>
            0 -1 24 -285742329 -419606939 -185084165 2554542 1861745969
            -9536171 -17858703 1936873399</internalNodes>
          <leafValues>
            -2.5558313727378845e-01 7.3260867595672607e-01</leafValues></_>
        <_>
          <internalNodes>
            0 -1 78 -235283471 -1216909783 1962929203 1029979445
            -1623278485 -437916122 770107307 -1167334097</internalNodes>
          <leafValues>
            -2.5417277216911316e-01 8.4159541130065918e-01</leafValues></_>
        <_>
          <internalNodes>
            0 -1 80 -2002206789 -1158758428 -1073741889 -1682374661
            787422031 -680329233 -1922061061 1023265885</internalNodes>
          <leafValues>
            -4.3742430210113525e-01 6.0210001468658447e-01</leafValues></_>
        <_>
          <internalNodes>
            0 -1 65 1178862039 -1761263599 -259256238 -1206697405
            142621042 -869531511 -2138567492 707226467</internalNodes>
          <leafValues>
            -5.9448510408401489e-01 5.2884662151336670e-01</leafValues></_>
        <_>
          <internalNodes>
            0 -1 168 -1793943612 587727234 1161920641 671154253
            1099505842 -67076086 -393664306 1016257451</internalNodes>
          <leafValues>
            -6.0066252946853638e-01 4.4984081387519836e-01</leafValues></_>
        <_>
          <internalNodes>
            0 -1 27 -827986392 1861690979 -1359040532 15985394
            1970796374 1060599807 -134257157 -1085033345</internalNodes>
          <leafValues>
            -5.2352774143218994e-01 5.6907063722610474e-01</leafValues></_>
        <_>
          <internalNodes>
            0 -1 189 554840833 -1019203437 -1004453742 1512308878
            -2013199686 -184385406 -2105376111 -1363082496</internalNodes>
          <leafValues>
            -5.9657567739486694e-01 5.0154179334640503e-01</leafValues></_></weakClassifiers></_>
    <!-- stage 8 -->
    <_>
      <maxWeakCount>6</maxWeakCount>
      <stageThreshold>-5.1507401466369629e-01</stageThreshold>
      <weakClassifiers>
        <_>
          <internalNodes>
            0 -1 155 792488565 -51486804 -786693 -1292943873 -184549633
            -8388609 -1627389964 498140500</internalNodes>
          <leafValues>
            -2.0567375421524048e-01 7.3111110925674438e-01</leafValues></_>
        <_>
          <internalNodes>
            0 -1 21 -244168589 -81172641 -285229063 -2008926595
            754271587 -18915458 -67175425 -1028591617</internalNodes>
          <leafValues>
            -3.9952114224433899e-01 6.4142143726348877e-01</leafValues></_>
        <_>
          <internalNodes>
            0 -1 136 -1347158817 2130579172 -82308 -1715622403
            -1074389010 -19130577 754739194 -8599480</internalNodes>
          <leafValues>
            -3.8820201158523560e-01 7.0475208759307861e-01</leafValues></_>
        <_>
          <internalNodes>
            0 -1 36 -1091043977 -672170242 -1359462792 -1078088260
            -1241694211 -134285833 889156852 -1153457948</internalNodes>
          <leafValues>
            -3.7390699982643127e-01 6.9737100601196289e-01</leafValues></_>
        <_>
          <internalNodes>
            0 -1 219 -134066155 -801013759 1342177285 1346043917
            1371578527 -896822254 134302219 772435978</internalNodes>
          <leafValues>
            -5.7073849439620972e-01 5.0143867731094360e-01</leafValues></_>
        <_>
          <internalNodes>
            0 -1 118 -1861056813 1887441024 -2147401456 -1726726144
            579051682 -1333624703 436241329 -2046311544</internalNodes>
          <leafValues>
            -5.5475908517837524e-01 5.3540480136871338e-01</leafValues></_></weakClassifiers></_>
    <!-- stage 9 -->
    <_>
      <maxWeakCount>6</maxWeakCount>
      <stageThreshold>-4.2859399318695068e-01</stageThreshold>
      <weakClassifiers>
        <_>
          <internalNodes>
            0 -1 39 728491675 179027959 -1342181385 -1368851745
            1031796061 -1883900121 -1207959945 230596565</internalNodes>
          <leafValues>
            -2.4808184802532196e-01 7.1673822402954102e-01</leafValues></_>
        <_>
          <internalNodes>
            0 -1 206 736747159 535766929 -21004499 1069403580
            -1879050257 -92307460 -1619388641 -13165163</internalNodes>
          <leafValues>
            -3.0883383750915527e-01 7.7969640493392944e-01</leafValues></_>
        <_>
          <internalNodes>
            0 -1 119 -1968447309 -210167046 -1409647625 1371092660
            -1221070146 1602223608 82255577 -667168316</internalNodes>
          <leafValues>
            -3.7683522701263428e-01 6.7696869373321533e-01</leafValues></_>
        <_>
          <internalNodes>
            0 -1 253 -1342459977 652259390 -1140916249 -1074364452
            -1904234852 -1501058397 -411074818 -1678013988</internalNodes>
          <leafValues>
            -3.8517394661903381e-01 6.5931588411331177e-01</leafValues></_>
        <_>
          <internalNodes>
            0 -1 241 945112093 -645586430 -2147392356 -871317407
            -402439981 -670851061 -2111078203 1210189933</internalNodes>
          <leafValues>
            -5.7205200195312500e-01 4.7987380623817444e-01</leafValues></_>
        <_>
          <internalNodes>
            0 -1 222 -1332685025 -721320701 -1073638631 1108518403
            -2146925630 287802123 1250459818 908259487</internalNodes>
          <leafValues>
            -5.4692697525024414e-01 5.4253959655761719e-01</leafValues></_></weakClassifiers></_>
    <!-- stage 10 -->
    <_>
      <maxWeakCount>8</maxWeakCount>
      <stageThreshold>-4.0970519185066223e-01</stageThreshold>
      <weakClassifiers>
        <_>
          <internalNodes>
            0 -1 22 -17573661 -1183842437 -285278470 -625104198
            -671195319 -42991819 -537954305 1869479934</internalNodes>
          <leafValues>
            -5.6994818150997162e-02 8.1182795763015747e-01</leafValues></_>
        <_>
          <internalNodes>
            0 -1 56 -970722603 2112054117 -1106149445 1845198805
            -1905449553 -138575875 251102967 1028379518</internalNodes>
          <leafValues>
            -2.9468849301338196e-01 7.2784292697906494e-01</leafValues></_>
        <_>
          <internalNodes>
            0 -1 217 -1221656625 1945382653 -1360348453 -1296384082
            -16924707 -1132618500 1071593429 -327131387</internalNodes>
          <leafValues>
            -4.4112575054168701e-01 6.1837792396545410e-01</leafValues></_>
        <_>
          <internalNodes>
            0 -1 88 -1757512483 -2021689927 918480831 291679981
            -1644175873 -1611241538 214892287 -1935091843</internalNodes>
          <leafValues>
            -4.0751159191131592e-01 6.8598598241806030e-01</leafValues></_>
        <_>
          <internalNodes>
            0 -1 13 -745368370 1342177281 285234268 1427308680
            -1870026582 -2134538176 1375782975 1596664334</internalNodes>
          <leafValues>
            -5.3334355354309082e-01 5.5852615833282471e-01</leafValues></_>
        <_>
          <internalNodes>
            0 -1 61 -1870657269 1695670288 1493712896 8544270
            -2138562039 -100524024 -225899901 1157715985</internalNodes>
          <leafValues>
            -6.2564688920974731e-01 4.6218720078468323e-01</leafValues></_>
        <_>
          <internalNodes>
            0 -1 26 -268623853 -1141922475 -98437 250505194 1988095564
            -1520730344 -1163426 -56623301</internalNodes>
          <leafValues>
            -4.8884287476539612e-01 5.9201747179031372e-01</leafValues></_>
        <_>
          <internalNodes>
            0 -1 173 830851568 354713616 -1069465318 -1958379512
            33689738 -593920000 -2096429937 672819497</internalNodes>
          <leafValues>
            -5.7771176099777222e-01 5.1056832075119019e-01</leafValues></_></weakClassifiers></_>
    <!-- stage 11 -->
    <_>
      <maxWeakCount>8</maxWeakCount>
      <stageThreshold>-5.6708055734634399e-01</stageThreshold>
      <weakClassifiers>
        <_>
          <internalNodes>
            0 -1 19 -923661241 947808118 -285278593 304377458 2122020936
            -1212449 520092926 1790731122</internalNodes>
          <leafValues>
            -3.3757960796356201e-01 6.7096132040023804e-01</leafValues></_>
        <_>
          <internalNodes>
            0 -1 101 -1650164129 335183689 -1409384507 -1083834720
            762105343 -1091602633 -1104202518 -68281304</internalNodes>
          <leafValues>
            -3.0115693807601929e-01 7.7403444051742554e-01</leafValues></_>
        <_>
          <internalNodes>
            0 -1 93 -607661968 486539361 -2063007724 1427046465
            -1039652726 -1574387704 34083849 639221775</internalNodes>
          <leafValues>
            -4.7581896185874939e-01 5.3232693672180176e-01</leafValues></_>
        <_>
          <internalNodes>
            0 -1 237 26031507 949239808 -247463065 -183463680 545818968
            -1071120256 1342860416 2090077088</internalNodes>
          <leafValues>
            -5.8483994007110596e-01 4.6710711717605591e-01</leafValues></_>
        <_>
          <internalNodes>
            0 -1 105 536969764 -279838326 1696612431 -1027567077
            -1064968168 -2138830709 -1744713589 -1000494762</internalNodes>
          <leafValues>
            -6.0104370117187500e-01 4.5365029573440552e-01</leafValues></_>
        <_>
          <internalNodes>
            0 -1 115 2120666887 2030001982 -98819 -1888489743
            -1669352659 -1688420545 1983362434 -1117930415</internalNodes>
          <leafValues>
            -4.5458534359931946e-01 6.3125991821289062e-01</leafValues></_>
        <_>
          <internalNodes>
            0 -1 229 -1199967427 -1350651009 1056865911 -1145180943
            -1116726311 -1410531330 -680087193 -1131292</internalNodes>
          <leafValues>
            -4.1345167160034180e-01 6.7358636856079102e-01</leafValues></_>
        <_>
          <internalNodes>
            0 -1 248 -1816560591 -1077989465 -4225 -1661502799 -69046929
            -1611698817 -1636534888 1257616718</internalNodes>
          <leafValues>
            -4.6723827719688416e-01 6.2167483568191528e-01</leafValues></_></weakClassifiers></_>
    <!-- stage 12 -->
    <_>
      <maxWeakCount>8</maxWeakCount>
      <stageThreshold>-6.6547834873199463e-01</stageThreshold>
      <weakClassifiers>
        <_>
          <internalNodes>
            0 -1 11 -1308718411 746551294 -1157644355 -806572812
            787447446 234725368 -1770693599 967836757</internalNodes>
          <leafValues>
            -3.2727271318435669e-01 6.8378651142120361e-01</leafValues></_>
        <_>
          <internalNodes>
            0 -1 87 -148573449 -206452002 -290537978 -671089480
            -1074294801 360273759 -1073785381 -278147633</internalNodes>
          <leafValues>
            -2.6440179347991943e-01 9.3673437833786011e-01</leafValues></_>
        <_>
          <internalNodes>
            0 -1 215 808113784 341348432 1073938904 893583620 50532505
            1418395664 84512808 2033139712</internalNodes>
          <leafValues>
            -5.2621841430664062e-01 4.8964160680770874e-01</leafValues></_>
        <_>
          <internalNodes>
            0 -1 10 404935514 -1820262383 1342239745 1157695809
            -2011070311 201506950 1101627544 218517518</internalNodes>
          <leafValues>
            -5.6177049875259399e-01 4.9201551079750061e-01</leafValues></_>
        <_>
          <internalNodes>
            0 -1 200 -1848576747 -586870781 -2147446764 22970723
            312483983 -1199402356 42031747 -1733672903</internalNodes>
          <leafValues>
            -5.0067144632339478e-01 5.8928555250167847e-01</leafValues></_>
        <_>
          <internalNodes>
            0 -1 28 -197081986 -1316761560 1090654281 1611825240
            -536794843 -1421082624 402899114 1620295822</internalNodes>
          <leafValues>
            -5.5961090326309204e-01 5.2842372655868530e-01</leafValues></_>
        <_>
          <internalNodes>
            0 -1 216 -1995189556 -1190588391 1090621462 -1857515520
            206943 1879148544 -2147317621 1504780320</internalNodes>
          <leafValues>
            -5.2692115306854248e-01 5.4195964336395264e-01</leafValues></_>
        <_>
          <internalNodes>
            0 -1 141 1886896804 1224835080 1107312925 -1589575679
            -1878818792 -1962409776 33728661 -1200838006</internalNodes>
          <leafValues>
            -5.1356524229049683e-01 5.9416747093200684e-01</leafValues></_></weakClassifiers></_>
    <!-- stage 13 -->
    <_>
      <maxWeakCount>8</maxWeakCount>
      <stageThreshold>-5.4216861724853516e-01</stageThreshold>
      <weakClassifiers>
        <_>
          <internalNodes>
            0 -1 69 -2105770543 -557940939 1744621438 1558773521
            997642061 -1275248777 1065152207 -1775810993</internalNodes>
          <leafValues>
            -7.2916664183139801e-02 8.2061576843261719e-01</leafValues></_>
        <_>
          <internalNodes>
            0 -1 126 -1646192421 -1240760725 -1074106983 -1142035140
            -580922177 -1621230337 1550208911 496389897</internalNodes>
          <leafValues>
            -2.9671478271484375e-01 7.2029662132263184e-01</leafValues></_>
        <_>
          <internalNodes>
            0 -1 252 892527925 -1389953542 2129624063 -1082433539
            1610323193 134069957 477388223 1440701820</internalNodes>
          <leafValues>
            -4.3355429172515869e-01 5.7250297069549561e-01</leafValues></_>
        <_>
          <internalNodes>
            0 -1 227 1564208966 1345617691 -8487285 845817643 -310452354
            -26738817 1996482377 185334855</internalNodes>
          <leafValues>
            -4.7070014476776123e-01 5.6098818778991699e-01</leafValues></_>
        <_>
          <internalNodes>
            0 -1 239 -2134292446 59937095 289475960 -876449732
            -2130706282 -2061434752 1086556224 1260210335</internalNodes>
          <leafValues>
            -6.4811211824417114e-01 4.2152494192123413e-01</leafValues></_>
        <_>
          <internalNodes>
            0 -1 3 -1414531145 -1107398918 -1879396665 -1192755297
            -1753229354 -455344272 -1915787745 -575847407</internalNodes>
          <leafValues>
            -4.7147759795188904e-01 6.2000352144241333e-01</leafValues></_>
        <_>
          <internalNodes>
            0 -1 23 -159815097 -1170243721 -83984681 1558343267
            1299652478 1609662431 -1258373505 -569907393</internalNodes>
          <leafValues>
            -4.9715703725814819e-01 6.3756638765335083e-01</leafValues></_>
        <_>
          <internalNodes>
            0 -1 242 -2129442747 -526904742 285905157 -1761015423
            1879672039 -536346495 268501160 160104769</internalNodes>
          <leafValues>
            -5.8281409740447998e-01 5.1757919788360596e-01</leafValues></_></weakClassifiers></_>
    <!-- stage 14 -->
    <_>
      <maxWeakCount>8</maxWeakCount>
      <stageThreshold>-5.3471380472183228e-01</stageThreshold>
      <weakClassifiers>
        <_>
          <internalNodes>
            0 -1 131 540763146 774250302 1064238835 2146139889
            1866263291 -1268287630 -537861818 1610601509</internalNodes>
          <leafValues>
            -1.9905214011669159e-01 7.2697001695632935e-01</leafValues></_>
        <_>
          <internalNodes>
            0 -1 235 -293644291 -554205194 -201326994 918470590
            2011067807 -1342275587 -1644396579 639268790</internalNodes>
          <leafValues>
            -4.3349707126617432e-01 6.0046589374542236e-01</leafValues></_>
        <_>
          <internalNodes>
            0 -1 111 -2030059075 2008491719 -1099777 -1968231644
            629132957 -1619134466 -1367492674 -841261215</internalNodes>
          <leafValues>
            -4.1521209478378296e-01 6.6681301593780518e-01</leafValues></_>
        <_>
          <internalNodes>
            0 -1 258 -520033243 1075347593 411258884 1883766912 13584463
            -1065320448 -1400862704 -390532065</internalNodes>
          <leafValues>
            -5.1969182491302490e-01 5.3700166940689087e-01</leafValues></_>
        <_>
          <internalNodes>
            0 -1 160 1536939743 503082860 998194870 2057559548
            1878792061 -1342374018 251063768 41146367</internalNodes>
          <leafValues>
            -4.6660122275352478e-01 5.9384316205978394e-01</leafValues></_>
        <_>
          <internalNodes>
            0 -1 24 -926072403 -503315185 50499899 1115685261 1724195885
            -73400060 -501069281 1666941843</internalNodes>
          <leafValues>
            -5.6907290220260620e-01 4.7817826271057129e-01</leafValues></_>
        <_>
          <internalNodes>
            0 -1 34 -2097419471 -1259094341 1715207931 -1523073051
            -25821822 -138971276 225414813 235099663</internalNodes>
          <leafValues>
            -4.4314804673194885e-01 6.3001018762588501e-01</leafValues></_>
        <_>
          <internalNodes>
            0 -1 177 1493537429 135282726 1494290969 168050828
            1346715874 -2128478200 1359036577 -1184511701</internalNodes>
          <leafValues>
            -5.1840531826019287e-01 5.5254554748535156e-01</leafValues></_></weakClassifiers></_>
    <!-- stage 15 -->
    <_>
      <maxWeakCount>8</maxWeakCount>
      <stageThreshold>-4.0972959995269775e-01</stageThreshold>
      <weakClassifiers>
        <_>
          <internalNodes>
            0 -1 14 -1584738142 -1706411990 -10082054 -169478145
            -281128006 1237270006 -230075 119895548</internalNodes>
          <leafValues>
            -3.4769231081008911e-01 6.8537074327468872e-01</leafValues></_>
        <_>
          <internalNodes>
            0 -1 179 -9897439 -197813 2046768889 -353571589 2146924276
            -394822019 947386093 -1712852397</internalNodes>
          <leafValues>
            -3.8268202543258667e-01 6.8320637941360474e-01</leafValues></_>
        <_>
          <internalNodes>
            0 -1 188 859536167 1040150333 -411042253 1973480959
            1067197839 -1157668937 451932095 -131160689</internalNodes>
          <leafValues>
            -3.6576619744300842e-01 6.9199657440185547e-01</leafValues></_>
        <_>
          <internalNodes>
            0 -1 84 983519871 -2034167789 -939446059 -1265850334
            25285403 -905573872 276849513 2083487937</internalNodes>
          <leafValues>
            -5.2649444341659546e-01 5.0501954555511475e-01</leafValues></_>
        <_>
          <internalNodes>
            0 -1 68 2143282559 -33685771 2130637886 -2314080 -1476397347
            -1116242473 -411615493 1056916976</internalNodes>
          <leafValues>
            -4.5892140269279480e-01 6.4824187755584717e-01</leafValues></_>
        <_>
          <internalNodes>
            0 -1 212 -1213484779 2005147438 805293797 -1990526516
            792638811 -1300758659 -1485439345 1340044708</internalNodes>
          <leafValues>
            -4.6878862380981445e-01 6.2032741308212280e-01</leafValues></_>
        <_>
          <internalNodes>
            0 -1 171 -819252686 511770531 -1073808798 -370300039
            632194488 779510901 89595370 -1241824033</internalNodes>
          <leafValues>
            -4.9167767167091370e-01 5.8626645803451538e-01</leafValues></_>
        <_>
          <internalNodes>
            0 -1 83 1048182319 -229834785 -49161 200636348 -1476395223
            -1384775810 -16927794 180278545</internalNodes>
          <leafValues>
            -4.9817237257957458e-01 6.1645191907882690e-01</leafValues></_></weakClassifiers></_>
    <!-- stage 16 -->
    <_>
      <maxWeakCount>8</maxWeakCount>
      <stageThreshold>-1.3781638145446777e+00</stageThreshold>
      <weakClassifiers>
        <_>
          <internalNodes>
            0 -1 129 -1342275981 871345983 -1074020385 -1158217751
            1061131903 -1073741953 1044186427 461971029</internalNodes>
          <leafValues>
            -1.5126051008701324e-01 7.5914996862411499e-01</leafValues></_>
        <_>
          <internalNodes>
            0 -1 12 -1713307657 1403457440 2146368451 -276365463
            -1392621906 -1342380058 -1465573681 -826097477</internalNodes>
          <leafValues>
            -2.6313707232475281e-01 8.3409518003463745e-01</leafValues></_>
        <_>
          <internalNodes>
            0 -1 226 1764185051 -803143421 -1879048168 538330110
            -1727954784 953401480 -1331455442 1613758559</internalNodes>
          <leafValues>
            -5.2880609035491943e-01 4.9686267971992493e-01</leafValues></_>
        <_>
          <internalNodes>
            0 -1 198 -1878412822 -39976062 411074651 -1148743679
            404947333 -2088763392 -1610569454 -2137304887</internalNodes>
          <leafValues>
            -4.4974777102470398e-01 5.5527764558792114e-01</leafValues></_>
        <_>
          <internalNodes>
            0 -1 89 -268964613 2097082100 1073741563 -1090846980
            2004843884 1072633789 1593665800 -1430262532</internalNodes>
          <leafValues>
            -4.7829326987266541e-01 5.7102513313293457e-01</leafValues></_>
        <_>
          <internalNodes>
            0 -1 11 -1820233219 -1072627448 -1878456970 -1323073280
            -1589634904 536908178 -1744809343 2073690273</internalNodes>
          <leafValues>
            -5.2508294582366943e-01 5.1557505130767822e-01</leafValues></_>
        <_>
          <internalNodes>
            0 -1 247 -1512443778 84042005 -1040117749 -1874784121
            -2147483555 142672003 1611439136 151249946</internalNodes>
          <leafValues>
            -5.9190028905868530e-01 4.9456977844238281e-01</leafValues></_>
        <_>
          <internalNodes>
            0 -1 133 1882632393 290042265 -788409989 -1869872241
            -799913984 17514667 1107954960 -1886845801</internalNodes>
          <leafValues>
            -5.1283681392669678e-01 5.5622184276580811e-01</leafValues></_></weakClassifiers></_>
    <!-- stage 17 -->
    <_>
      <maxWeakCount>7</maxWeakCount>
      <stageThreshold>-8.5457456111907959e-01</stageThreshold>
      <weakClassifiers>
        <_>
          <internalNodes>
            0 -1 249 -1548903069 216793063 1039002613 -1254801667
            1534576604 -1367867529 1887297749 1340603671</internalNodes>
          <leafValues>
            -1.2423625588417053e-01 7.5961536169052124e-01</leafValues></_>
        <_>
          <internalNodes>
            0 -1 135 -277414408 -1205813900 -1094819137 -79885699
            -1644800353 499465623 423982331 -103411507</internalNodes>
          <leafValues>
            -3.3039981126785278e-01 6.9936633110046387e-01</leafValues></_>
        <_>
          <internalNodes>
            0 -1 157 -1082696138 1877235432 -89633032 636550884
            -1283507406 -1401684043 1451227375 -77072582</internalNodes>
          <leafValues>
            -4.2559620738029480e-01 5.7908362150192261e-01</leafValues></_>
        <_>
          <internalNodes>
            0 -1 91 -1807728363 -2130444154 -938999743 16943184
            -2130141046 600027272 184596661 -1724233312</internalNodes>
          <leafValues>
            -5.4862928390502930e-01 4.7461017966270447e-01</leafValues></_>
        <_>
          <internalNodes>
            0 -1 190 -1884635173 -80830609 117201337 -1654325459
            662642332 -1624903809 402411183 -7343050</internalNodes>
          <leafValues>
            -3.6978831887245178e-01 7.6624810695648193e-01</leafValues></_>
        <_>
          <internalNodes>
            0 -1 38 839157605 1111498997 16810504 -1206845036
            -1026913107 1208027776 -536093871 850415872</internalNodes>
          <leafValues>
            -7.3141139745712280e-01 4.1112428903579712e-01</leafValues></_>
        <_>
          <internalNodes>
            0 -1 169 -268883205 -676119059 1845264382 2008084345
            1942894492 -841583241 -268487178 -17400795</internalNodes>
          <leafValues>
            -4.7172877192497253e-01 6.1504888534545898e-01</leafValues></_></weakClassifiers></_>
    <!-- stage 18 -->
    <_>
      <maxWeakCount>7</maxWeakCount>
      <stageThreshold>-3.0367022752761841e-01</stageThreshold>
      <weakClassifiers>
        <_>
          <internalNodes>
            0 -1 98 697843262 -1291911261 -1427116481 -1434910866
            1069401971 -167903745 -1158056717 1017609973</internalNodes>
          <leafValues>
            -2.6666668057441711e-01 6.9262719154357910e-01</leafValues></_>
        <_>
          <internalNodes>
            0 -1 6 -4130109 -569971220 -50352857 -9097422 -344170756
            -1224966276 2126369270 -1372063533</internalNodes>
          <leafValues>
            -3.0235099792480469e-01 7.5113737583160400e-01</leafValues></_>
        <_>
          <internalNodes>
            0 -1 228 -1104216309 850591722 -1073856843 840433193
            1862229773 1879044079 -25690243 -301990273</internalNodes>
          <leafValues>
            -3.9727514982223511e-01 6.2491500377655029e-01</leafValues></_>
        <_>
          <internalNodes>
            0 -1 94 -784121386 142656172 -800421486 -1070578664
            -393727831 -1073692589 -519405530 496572568</internalNodes>
          <leafValues>
            -5.9746366739273071e-01 4.4219747185707092e-01</leafValues></_>
        <_>
          <internalNodes>
            0 -1 103 806600969 -1626075112 -2147450760 1006637376
            469768273 -99974976 -2122239351 -1052384867</internalNodes>
          <leafValues>
            -5.7631802558898926e-01 4.7158932685852051e-01</leafValues></_>
        <_>
          <internalNodes>
            0 -1 221 1612222488 -754843632 272724371 1363972105
            -2105357925 -1508769533 1107994809 1628143656</internalNodes>
          <leafValues>
            -5.3523576259613037e-01 5.2847206592559814e-01</leafValues></_>
        <_>
          <internalNodes>
            0 -1 181 -1869942544 756072776 -2143251821 1628246032
            42090712 50372608 277020789 1115791595</internalNodes>
          <leafValues>
            -6.4950513839721680e-01 4.1285389661788940e-01</leafValues></_></weakClassifiers></_>
    <!-- stage 19 -->
    <_>
      <maxWeakCount>8</maxWeakCount>
      <stageThreshold>-6.3316172361373901e-01</stageThreshold>
      <weakClassifiers>
        <_>
          <internalNodes>
            0 -1 193 1790847248 -1489523796 -273289351 -1683789898
            1677352409 -12632075 1433876202 136896387</internalNodes>
          <leafValues>
            -1.9901719689369202e-01 7.1179038286209106e-01</leafValues></_>
        <_>
          <internalNodes>
            0 -1 75 -351040291 -612659335 -1346445619 1021583358
            -864695120 1444904816 1409195592 -1076156454</internalNodes>
          <leafValues>
            -3.1180787086486816e-01 7.2002708911895752e-01</leafValues></_>
        <_>
          <internalNodes>
            0 -1 64 1343247362 -802945005 1114441 289841792 -1073718550
            -1728012286 -796781942 -360688006</internalNodes>
          <leafValues>
            -5.4929012060165405e-01 4.8594623804092407e-01</leafValues></_>
        <_>
          <internalNodes>
            0 -1 102 -2032313441 323973420 -336613449 -1858263667
            871226837 -1108508818 266886649 -207469296</internalNodes>
          <leafValues>
            -4.5374909043312073e-01 5.7838654518127441e-01</leafValues></_>
        <_>
          <internalNodes>
            0 -1 176 8580994 -1122975391 96903577 19140616 553652304
            -645922814 337679067 738232849</internalNodes>
          <leafValues>
            -6.2118029594421387e-01 4.2785024642944336e-01</leafValues></_>
        <_>
          <internalNodes>
            0 -1 46 97735018 -715358207 -2147463139 -2143288830
            1526729496 -712867711 142656043 -299134951</internalNodes>
          <leafValues>
            -4.7295683622360229e-01 5.5317026376724243e-01</leafValues></_>
        <_>
          <internalNodes>
            0 -1 143 -1162150147 -85000533 -1224835077 2141499259
            1060061075 -637534210 595312063 -1254106631</internalNodes>
          <leafValues>
            -3.9446967840194702e-01 6.6294682025909424e-01</leafValues></_>
        <_>
          <internalNodes>
            0 -1 110 620974301 1141965088 1477525833 562135347 33558787
            696254464 -268316790 176202497</internalNodes>
          <leafValues>
            -6.0546880960464478e-01 4.9234834313392639e-01</leafValues></_></weakClassifiers></_>
    <!-- stage 20 -->
    <_>
      <maxWeakCount>9</maxWeakCount>
      <stageThreshold>-8.7110453844070435e-01</stageThreshold>
      <weakClassifiers>
        <_>
          <internalNodes>
            0 -1 52 2129569292 531299454 -1342259474 539027558
            1966356269 1836382076 1857976126 1010644598</internalNodes>
          <leafValues>
            -3.8129496574401855e-01 6.4784687757492065e-01</leafValues></_>
        <_>
          <internalNodes>
            0 -1 43 -133440265 -1147199750 -1613695435 -1615610904
            -877346 -172003469 104177519 -486846549</internalNodes>
          <leafValues>
            -3.0122768878936768e-01 7.9653036594390869e-01</leafValues></_>
        <_>
          <internalNodes>
            0 -1 130 423279295 -1167589780 -66443 847240443 -327407725
            -1381079041 763268253 1844106379</internalNodes>
          <leafValues>
            -3.2184550166130066e-01 6.8389600515365601e-01</leafValues></_>
        <_>
          <internalNodes>
            0 -1 213 342307737 286361603 1074139141 957349889 1358007438
            230145 -2143108855 965347417</internalNodes>
          <leafValues>
            -5.1603305339813232e-01 5.0136417150497437e-01</leafValues></_>
        <_>
          <internalNodes>
            0 -1 30 1659816269 -470810913 -1157693828 1392504702
            -2013433242 2013192060 -721840398 -38801545</internalNodes>
          <leafValues>
            -4.1840961575508118e-01 6.2147080898284912e-01</leafValues></_>
        <_>
          <internalNodes>
            0 -1 42 304747757 944660866 302100693 -1602057982 27443714
            -494919648 805504738 886976663</internalNodes>
          <leafValues>
            -6.0652583837509155e-01 4.7965422272682190e-01</leafValues></_>
        <_>
          <internalNodes>
            0 -1 90 272998000 -1010489310 1074923921 805716631
            -2126075259 -786399231 -1995525502 -1072981158</internalNodes>
          <leafValues>
            -5.2189123630523682e-01 5.3776490688323975e-01</leafValues></_>
        <_>
          <internalNodes>
            0 -1 162 -1405761517 409926644 2008497525 1408924789
            935661053 -1745750217 1605890731 427783891</internalNodes>
          <leafValues>
            -4.5146161317825317e-01 6.2142956256866455e-01</leafValues></_>
        <_>
          <internalNodes>
            0 -1 70 42287235 -267612157 131161 -1064304355 554304065
            -1744203756 386621581 -270284658</internalNodes>
          <leafValues>
            -4.9671211838722229e-01 5.8308744430541992e-01</leafValues></_></weakClassifiers></_>
    <!-- stage 21 -->
    <_>
      <maxWeakCount>8</maxWeakCount>
      <stageThreshold>-4.8364576697349548e-01</stageThreshold>
      <weakClassifiers>
        <_>
          <internalNodes>
            0 -1 122 -1368912097 -339976257 1824484903 522694397
            50314581 -50397325 251457531 423628116</internalNodes>
          <leafValues>
            -1.5766738355159760e-01 7.4883723258972168e-01</leafValues></_>
        <_>
          <internalNodes>
            0 -1 40 -1815089989 -603980075 1870655461 -1037173020
            787340333 50296821 -1611074321 -134920869</internalNodes>
          <leafValues>
            -2.6624864339828491e-01 8.0350583791732788e-01</leafValues></_>
        <_>
          <internalNodes>
            0 -1 203 536989857 1096876048 -1795092074 1342490641
            421005464 1069549768 1753747725 288301111</internalNodes>
          <leafValues>
            -4.9347341060638428e-01 5.0373470783233643e-01</leafValues></_>
        <_>
          <internalNodes>
            0 -1 108 -2069299209 -6410689 -1073819787 -1108148420
            -25698608 -1183088772 -2089200617 -1526235265</internalNodes>
          <leafValues>
            -3.9842811226844788e-01 6.5829682350158691e-01</leafValues></_>
        <_>
          <internalNodes>
            0 -1 35 -1565677751 -1158744129 1862218807 867614689
            1729882071 -562301201 528434285 -859871749</internalNodes>
          <leafValues>
            -4.3015187978744507e-01 6.2086951732635498e-01</leafValues></_>
        <_>
          <internalNodes>
            0 -1 163 -1577058185 2140209280 -2013196107 -1322221312
            -2147476844 1006698514 -796915507 1574438025</internalNodes>
          <leafValues>
            -4.9091580510139465e-01 5.5494415760040283e-01</leafValues></_>
        <_>
          <internalNodes>
            0 -1 134 -461245720 -2146680046 33640922 16929248
            -1874442079 -1677156352 1094715528 454820904</internalNodes>
          <leafValues>
            -6.2254256010055542e-01 4.2512986063957214e-01</leafValues></_>
        <_>
          <internalNodes>
            0 -1 113 922218 1193445762 16667 1411433489 -1072004782
            822231299 -2071952760 -5046097</internalNodes>
          <leafValues>
            -5.7379072904586792e-01 4.7125098109245300e-01</leafValues></_></weakClassifiers></_>
    <!-- stage 22 -->
    <_>
      <maxWeakCount>8</maxWeakCount>
      <stageThreshold>-4.8417326807975769e-01</stageThreshold>
      <weakClassifiers>
        <_>
          <internalNodes>
            0 -1 249 -407914377 233766881 1022225393 1429569279
            -1686649004 259489655 821362896 1269292951</internalNodes>
          <leafValues>
            -1.5652173757553101e-01 7.4507534503936768e-01</leafValues></_>
        <_>
          <internalNodes>
            0 -1 120 -209070865 -1234487458 1878978553 2125463413
            1575960559 1735376754 -1780432963 -1282341443</internalNodes>
          <leafValues>
            -2.6847100257873535e-01 7.8373003005981445e-01</leafValues></_>
        <_>
          <internalNodes>
            0 -1 53 518389435 2062478847 -1359021062 553332518
            2000641840 377487125 1866389498 -1192858532</internalNodes>
          <leafValues>
            -4.5921888947486877e-01 5.2211308479309082e-01</leafValues></_>
        <_>
          <internalNodes>
            0 -1 147 -1476813945 346413129 637417007 -1523778082
            117340087 342910822 -134416009 -4225801</internalNodes>
          <leafValues>
            -3.7478014826774597e-01 6.5181761980056763e-01</leafValues></_>
        <_>
          <internalNodes>
            0 -1 82 532333627 -139001923 989855733 1065336695
            -1086380550 -1754267971 264140398 1431138005</internalNodes>
          <leafValues>
            -4.9527427554130554e-01 5.3909343481063843e-01</leafValues></_>
        <_>
          <internalNodes>
            0 -1 199 -1196545978 -1308028480 1350601105 -146714615
            38422985 -654147428 168026717 -557948919</internalNodes>
          <leafValues>
            -4.8958554863929749e-01 5.1874589920043945e-01</leafValues></_>
        <_>
          <internalNodes>
            0 -1 63 327384277 -1073709035 -1073741808 -1064959856
            1113297929 1913291402 -2013257720 1058710016</internalNodes>
          <leafValues>
            -5.3789001703262329e-01 5.2748447656631470e-01</leafValues></_>
        <_>
          <internalNodes>
            0 -1 81 -1022869498 -1063714533 58789899 -805207975
            403804572 -1207959424 -2013198325 1898142008</internalNodes>
          <leafValues>
            -6.6181564331054688e-01 4.1463938355445862e-01</leafValues></_></weakClassifiers></_>
    <!-- stage 23 -->
    <_>
      <maxWeakCount>9</maxWeakCount>
      <stageThreshold>-9.3441390991210938e-01</stageThreshold>
      <weakClassifiers>
        <_>
          <internalNodes>
            0 -1 16 799354847 618311423 -65793 -1964048417 1442809606
            1711243127 -436228172 1723785208</internalNodes>
          <leafValues>
            -2.7419355511665344e-01 7.0767611265182495e-01</leafValues></_>
        <_>
          <internalNodes>
            0 -1 153 -764414341 1407696887 -1443365917 1596555115
            257949151 -973635730 -134781556 -293738837</internalNodes>
          <leafValues>
            -2.2953666746616364e-01 8.9097052812576294e-01</leafValues></_>
        <_>
          <internalNodes>
            0 -1 261 -508300161 1715798039 1073807638 1110742041
            -2129440219 -2012708862 33328 273403210</internalNodes>
          <leafValues>
            -5.2364391088485718e-01 4.7504648566246033e-01</leafValues></_>
        <_>
          <internalNodes>
            0 -1 149 -1619797714 1668234991 -1092595905 603570175
            -1744895820 -2022785166 -869560 -980156578</internalNodes>
          <leafValues>
            -4.1912800073623657e-01 5.9198498725891113e-01</leafValues></_>
        <_>
          <internalNodes>
            0 -1 55 -1623290713 -1104351391 -1183995995 1034944101
            -1350598729 -2041102849 801619933 260038045</internalNodes>
          <leafValues>
            -4.5846971869468689e-01 5.7367938756942749e-01</leafValues></_>
        <_>
          <internalNodes>
            0 -1 150 -818531327 -1120965167 2129309290 -1377059250
            -17449579 520021853 -1652744791 1396110839</internalNodes>
          <leafValues>
            -5.0833922624588013e-01 5.4899209737777710e-01</leafValues></_>
        <_>
          <internalNodes>
            0 -1 240 -1375192235 -444541286 286794070 306239488
            -1986657728 -2071383936 554280968 1846231433</internalNodes>
          <leafValues>
            -6.2439447641372681e-01 4.2770439386367798e-01</leafValues></_>
        <_>
          <internalNodes>
            0 -1 138 -1765073351 1038507260 738195935 1853640574
            2105490943 -1080590372 771743560 -42103619</internalNodes>
          <leafValues>
            -4.8784291744232178e-01 5.6972551345825195e-01</leafValues></_>
        <_>
          <internalNodes>
            0 -1 224 76203170 -771469311 70144 990253057 -2147438462
            -234749824 100859983 167940443</internalNodes>
          <leafValues>
            -6.0234791040420532e-01 5.0165414810180664e-01</leafValues></_></weakClassifiers></_>
    <!-- stage 24 -->
    <_>
      <maxWeakCount>9</maxWeakCount>
      <stageThreshold>-6.3772541284561157e-01</stageThreshold>
      <weakClassifiers>
        <_>
          <internalNodes>
            0 -1 7 -835850872 -1636361061 2138947040 -1611154608
            686802789 -1367507082 184302823 32979123</internalNodes>
          <leafValues>
            -1.7431192100048065e-01 7.2942501306533813e-01</leafValues></_>
        <_>
          <internalNodes>
            0 -1 259 1773492535 250339045 2080337798 -680972865
            2147481085 2079784958 -436767680 -1632969161</internalNodes>
          <leafValues>
            -3.9086994528770447e-01 6.5018564462661743e-01</leafValues></_>
        <_>
          <internalNodes>
            0 -1 100 -7693411 -809893897 -772753 926088944 97279532
            -1120635017 -587348165 -1615122182</internalNodes>
          <leafValues>
            -3.2794022560119629e-01 7.6584547758102417e-01</leafValues></_>
        <_>
          <internalNodes>
            0 -1 230 -1578435565 -1463931405 -16778415 -1650016473
            1945957773 -2094072545 1415544573 -691536385</internalNodes>
          <leafValues>
            -3.8900837302207947e-01 6.7291903495788574e-01</leafValues></_>
        <_>
          <internalNodes>
            0 -1 25 -999397429 2104242047 -356520196 -1036210315
            -42097067 -41976449 2130182127 -807731329</internalNodes>
          <leafValues>
            -4.4680127501487732e-01 6.1538040637969971e-01</leafValues></_>
        <_>
          <internalNodes>
            0 -1 79 -1802710713 -1811611501 1081854 -2122229861
            151372026 526498 -499119501 439920784</internalNodes>
          <leafValues>
            -5.7524901628494263e-01 4.8190250992774963e-01</leafValues></_>
        <_>
          <internalNodes>
            0 -1 144 -281285052 1375694591 1870555638 1772683191
            -964692361 643526580 -990802190 -1216295165</internalNodes>
          <leafValues>
            -4.7407612204551697e-01 5.9750550985336304e-01</leafValues></_>
        <_>
          <internalNodes>
            0 -1 76 -2098030859 2055106278 1072316286 939310909
            526106605 -542171163 -1906352645 -335681723</internalNodes>
          <leafValues>
            -4.5763587951660156e-01 5.9807288646697998e-01</leafValues></_>
        <_>
          <internalNodes>
            0 -1 245 988130535 259811318 -1208008969 1744300012
            -1075282192 536854398 -855849794 -370686727</internalNodes>
          <leafValues>
            -4.0377673506736755e-01 6.8106836080551147e-01</leafValues></_></weakClassifiers></_>
    <!-- stage 25 -->
    <_>
      <maxWeakCount>9</maxWeakCount>
      <stageThreshold>-8.4074836969375610e-01</stageThreshold>
      <weakClassifiers>
        <_>
          <internalNodes>
            0 -1 184 459793466 2035420449 -306383028 394110240
            -1745015444 1870515574 2021575906 147838027</internalNodes>
          <leafValues>
            -1.7431192100048065e-01 7.2942501306533813e-01</leafValues></_>
        <_>
          <internalNodes>
            0 -1 132 -93413742 -79847826 -218113109 -100931781
            -1091112973 -1420363913 1946101195 1876961119</internalNodes>
          <leafValues>
            -3.4371533989906311e-01 6.7392563819885254e-01</leafValues></_>
        <_>
          <internalNodes>
            0 -1 139 -1927072752 -778927870 65559 402653315 12587755
            -499023868 34120621 922983041</internalNodes>
          <leafValues>
            -5.0616168975830078e-01 4.9512460827827454e-01</leafValues></_>
        <_>
          <internalNodes>
            0 -1 175 -312477607 -1237144505 -1627656211 -101044508
            626978009 -810147841 1316679167 -1357891681</internalNodes>
          <leafValues>
            -3.4598895907402039e-01 7.2299087047576904e-01</leafValues></_>
        <_>
          <internalNodes>
            0 -1 204 1043907039 1472187189 -536961029 1572323255
            -50401361 762805690 -1536766347 -1636644997</internalNodes>
          <leafValues>
            -3.7700530886650085e-01 6.6199505329132080e-01</leafValues></_>
        <_>
          <internalNodes>
            0 -1 246 -2089816906 401410043 -1124106780 -1614840323
            2146958834 939472629 -1128766368 1266144507</internalNodes>
          <leafValues>
            -4.6336185932159424e-01 5.9038996696472168e-01</leafValues></_>
        <_>
          <internalNodes>
            0 -1 66 -58461943 285478928 -1073728200 277940754 1342203963
            1098940544 2621849 291472169</internalNodes>
          <leafValues>
            -5.2577126026153564e-01 5.0899487733840942e-01</leafValues></_>
        <_>
          <internalNodes>
            0 -1 161 419543120 -1227648938 68210689 1879441412 111149306
            -79675387 -1979528504 1254236923</internalNodes>
          <leafValues>
            -5.5354702472686768e-01 5.2921718358993530e-01</leafValues></_>
        <_>
          <internalNodes>
            0 -1 58 -2011974581 -1596784630 -1811935101 -648699901
            143196295 524939 -335312848 -1721390439</internalNodes>
          <leafValues>
            -5.2601480484008789e-01 5.4233419895172119e-01</leafValues></_></weakClassifiers></_>
    <!-- stage 26 -->
    <_>
      <maxWeakCount>8</maxWeakCount>
      <stageThreshold>-4.2970240116119385e-01</stageThreshold>
      <weakClassifiers>
        <_>
          <internalNodes>
            0 -1 254 -676333737 -445491404 -16949251 -672989513
            1039517437 -1342181377 -2015464109 1010761593</internalNodes>
          <leafValues>
            -2.3333333432674408e-02 8.0912864208221436e-01</leafValues></_>
        <_>
          <internalNodes>
            0 -1 18 -1157643665 809499563 -134427671 -500025358
            -839987730 -1015611593 -1694501085 2140648970</internalNodes>
          <leafValues>
            -3.3691197633743286e-01 6.3648784160614014e-01</leafValues></_>
        <_>
          <internalNodes>
            0 -1 49 1861461639 2126490863 -35009831 -361343233
            1995855381 -407371969 -838894630 -33620129</internalNodes>
          <leafValues>
            -4.1539260745048523e-01 5.7824891805648804e-01</leafValues></_>
        <_>
          <internalNodes>
            0 -1 185 -288992815 -16924700 -1074632220 -189814078
            1986979437 -369229827 -165123 476011735</internalNodes>
          <leafValues>
            -4.2810854315757751e-01 5.5966091156005859e-01</leafValues></_>
        <_>
          <internalNodes>
            0 -1 251 37070766 1934421750 -1012316298 -242597895
            773514655 1642888382 -700620929 -1078247574</internalNodes>
          <leafValues>
            -4.5011526346206665e-01 5.5415630340576172e-01</leafValues></_>
        <_>
          <internalNodes>
            0 -1 77 -1328482300 -787185584 328019 -1388048384 268648651
            -662405112 -1727781782 257753619</internalNodes>
          <leafValues>
            -6.1367535591125488e-01 4.1645643115043640e-01</leafValues></_>
        <_>
          <internalNodes>
            0 -1 205 1182036117 635571937 -1073812557 807239629
            -1346409538 -1619042446 -109994117 -1130174136</internalNodes>
          <leafValues>
            -4.8188796639442444e-01 5.6821471452713013e-01</leafValues></_>
        <_>
          <internalNodes>
            0 -1 165 -1499742357 -1750073369 872398845 -226558337
            -1678803259 -1645871105 -164537516 1830698477</internalNodes>
          <leafValues>
            -4.9041068553924561e-01 5.5329400300979614e-01</leafValues></_></weakClassifiers></_>
    <!-- stage 27 -->
    <_>
      <maxWeakCount>9</maxWeakCount>
      <stageThreshold>-1.1774157285690308e+00</stageThreshold>
      <weakClassifiers>
        <_>
          <internalNodes>
            0 -1 109 -1469677046 909815414 -1209076229 -268505161
            964123912 1769242422 1987569472 1410852061</internalNodes>
          <leafValues>
            -4.6613547205924988e-01 6.4179104566574097e-01</leafValues></_>
        <_>
          <internalNodes>
            0 -1 45 1534055839 -587563468 -1440091887 -1041058013
            461247817 2113896317 -2035024033 -504371347</internalNodes>
          <leafValues>
            -3.1654611229896545e-01 7.6702755689620972e-01</leafValues></_>
        <_>
          <internalNodes>
            0 -1 95 2108042109 -991510795 2130685565 99540164 -24
            956268287 297744829 531006693</internalNodes>
          <leafValues>
            -4.6647635102272034e-01 5.2663540840148926e-01</leafValues></_>
        <_>
          <internalNodes>
            0 -1 234 1912996405 -462224239 -736894627 -799621086
            -1064974261 143458817 1721288881 1651558845</internalNodes>
          <leafValues>
            -5.7772821187973022e-01 4.6771651506423950e-01</leafValues></_>
        <_>
          <internalNodes>
            0 -1 31 -804146363 -788393983 1359004042 -1576484840
            1207959562 1481506907 1351240206 1905068155</internalNodes>
          <leafValues>
            -6.1279320716857910e-01 4.2853125929832458e-01</leafValues></_>
        <_>
          <internalNodes>
            0 -1 59 -349672471 1044250547 -4198723 -1176223759
            -1476580017 -192970884 -1887975580 1233102706</internalNodes>
          <leafValues>
            -4.7267928719520569e-01 5.8628445863723755e-01</leafValues></_>
        <_>
          <internalNodes>
            0 -1 54 1148302938 -672006595 -269418501 -9048136 1308255964
            -8593419 -1896226822 -1996660528</internalNodes>
          <leafValues>
            -4.3942007422447205e-01 6.2081694602966309e-01</leafValues></_>
        <_>
          <internalNodes>
            0 -1 211 -1929207806 1929871507 1082196359 -1849360381
            8421515 -920551158 1086366344 155411205</internalNodes>
          <leafValues>
            -5.5386930704116821e-01 5.0919520854949951e-01</leafValues></_>
        <_>
          <internalNodes>
            0 -1 60 -1125685335 -155709454 1019114667 620297973
            251217639 995327979 -830484870 -986710192</internalNodes>
          <leafValues>
            -4.7998243570327759e-01 6.1249047517776489e-01</leafValues></_></weakClassifiers></_>
    <!-- stage 28 -->
    <_>
      <maxWeakCount>8</maxWeakCount>
      <stageThreshold>-4.4777885079383850e-01</stageThreshold>
      <weakClassifiers>
        <_>
          <internalNodes>
            0 -1 191 16126845 -105025675 1341833211 -1074401612
            918441694 -163841 -1610674818 259853473</internalNodes>
          <leafValues>
            -1.4405010640621185e-01 7.5829386711120605e-01</leafValues></_>
        <_>
          <internalNodes>
            0 -1 97 -739654421 -148429213 -269687557 -738197577
            -538576949 -1485901957 1743959807 -98947091</internalNodes>
          <leafValues>
            -2.0798429846763611e-01 9.1033238172531128e-01</leafValues></_>
        <_>
          <internalNodes>
            0 -1 37 202060177 1170341893 -2146893671 -141228028
            -1870501638 -1836777472 -326909791 1067450505</internalNodes>
          <leafValues>
            -4.4992086291313171e-01 5.5734008550643921e-01</leafValues></_>
        <_>
          <internalNodes>
            0 -1 158 -63820171 -625545242 -285298699 971312868
            -147333195 -34611201 1207796285 534196087</internalNodes>
          <leafValues>
            -4.7130194306373596e-01 5.3996682167053223e-01</leafValues></_>
        <_>
          <internalNodes>
            0 -1 195 1932470067 -1409319749 805227303 401341752
            1575976587 -8388875 -813745177 1513705781</internalNodes>
          <leafValues>
            -4.6825990080833435e-01 5.7621955871582031e-01</leafValues></_>
        <_>
          <internalNodes>
            0 -1 107 270631103 1611157889 1157645757 -1659695103
            16908443 -1174347768 402704889 498436236</internalNodes>
          <leafValues>
            -5.5392539501190186e-01 5.4505568742752075e-01</leafValues></_>
        <_>
          <internalNodes>
            0 -1 256 1837273859 10914003 872470551 -1442721792 34209800
            293832779 1619034755 1499960338</internalNodes>
          <leafValues>
            -5.8831340074539185e-01 5.1964777708053589e-01</leafValues></_>
        <_>
          <internalNodes>
            0 -1 236 -1786691269 -656965632 281099 486539730 -1979514617
            -1597865936 -1811201653 1004027848</internalNodes>
          <leafValues>
            -5.7260888814926147e-01 5.0425755977630615e-01</leafValues></_></weakClassifiers></_>
    <!-- stage 29 -->
    <_>
      <maxWeakCount>6</maxWeakCount>
      <stageThreshold>-5.8334386348724365e-01</stageThreshold>
      <weakClassifiers>
        <_>
          <internalNodes>
            0 -1 192 96601255 -281137156 1861959421 2076688182 763362468
            -2046836889 385682166 1301037023</internalNodes>
          <leafValues>
            -1.4509804546833038e-01 7.9335790872573853e-01</leafValues></_>
        <_>
          <internalNodes>
            0 -1 72 767278041 1595309005 -2031171653 1978998771
            -2013329156 1333755893 876525671 1567526464</internalNodes>
          <leafValues>
            -3.5585188865661621e-01 7.2123503684997559e-01</leafValues></_>
        <_>
          <internalNodes>
            0 -1 44 -348143593 1783216689 -134283598 -1209536777
            -682568309 1665628022 1206974943 63022430</internalNodes>
          <leafValues>
            -3.8198888301849365e-01 7.0788878202438354e-01</leafValues></_>
        <_>
          <internalNodes>
            0 -1 148 1690279385 -992023297 1862270204 -814445139
            -154745346 -1591943563 -402990249 222172377</internalNodes>
          <leafValues>
            -4.8719549179077148e-01 5.5997800827026367e-01</leafValues></_>
        <_>
          <internalNodes>
            0 -1 196 688202119 17956883 8393939 1595277313 -1392508759
            -351198840 -2138996342 574664805</internalNodes>
          <leafValues>
            -6.1662405729293823e-01 4.5274752378463745e-01</leafValues></_>
        <_>
          <internalNodes>
            0 -1 210 1887666496 1099300936 -2122249943 423108616
            -1031747480 -2012446526 -2142402493 794591481</internalNodes>
          <leafValues>
            -5.8221489191055298e-01 5.1396763324737549e-01</leafValues></_></weakClassifiers></_>
    <!-- stage 30 -->
    <_>
      <maxWeakCount>9</maxWeakCount>
      <stageThreshold>-7.3685383796691895e-01</stageThreshold>
      <weakClassifiers>
        <_>
          <internalNodes>
            0 -1 214 -1444063497 229404602 805306105 2129633145
            1063134516 805273597 -100862523 1538999640</internalNodes>
          <leafValues>
            -1.5948276221752167e-01 7.5087308883666992e-01</leafValues></_>
        <_>
          <internalNodes>
            0 -1 174 -1372849572 -272023579 720289279 -1081606530
            737107243 -8585217 364836815 715888069</internalNodes>
          <leafValues>
            -3.7487998604774475e-01 6.4353781938552856e-01</leafValues></_>
        <_>
          <internalNodes>
            0 -1 151 -629155173 -713070790 1589575361 -236552463
            -1216373277 -161546497 1333755382 -654311586</internalNodes>
          <leafValues>
            -3.0362269282341003e-01 8.5199016332626343e-01</leafValues></_>
        <_>
          <internalNodes>
            0 -1 238 -2105613349 -2031354010 805207626 -1082329110
            -1073908170 -1757937673 766751921 -1480665477</internalNodes>
          <leafValues>
            -4.2882427573204041e-01 5.9586846828460693e-01</leafValues></_>
        <_>
          <internalNodes>
            0 -1 73 123994695 338755868 -784285635 806789264 -1472151545
            -1197438969 -1719388017 1242215337</internalNodes>
          <leafValues>
            -5.1214581727981567e-01 5.3619867563247681e-01</leafValues></_>
        <_>
          <internalNodes>
            0 -1 51 1680664250 2030325898 805423178 1086374210
            1082155009 838991872 2230400 1863312247</internalNodes>
          <leafValues>
            -5.6439036130905151e-01 4.8817616701126099e-01</leafValues></_>
        <_>
          <internalNodes>
            0 -1 207 -1062903428 -611123198 268649552 218464256
            134220008 428351616 549596203 -1135588858</internalNodes>
          <leafValues>
            -4.8284885287284851e-01 6.1375725269317627e-01</leafValues></_>
        <_>
          <internalNodes>
            0 -1 233 112862983 -1800538320 1879047786 146309048
            -1812121693 -293642248 998235228 -1983963909</internalNodes>
          <leafValues>
            -4.9924096465110779e-01 6.0443514585494995e-01</leafValues></_>
        <_>
          <internalNodes>
            0 -1 125 791413251 -180420607 33554569 -367389820 973284024
            -1038548920 1209119392 1887969455</internalNodes>
          <leafValues>
            -5.7928180694580078e-01 5.1554459333419800e-01</leafValues></_></weakClassifiers></_>
    <!-- stage 31 -->
    <_>
      <maxWeakCount>8</maxWeakCount>
      <stageThreshold>-1.6062068939208984e-01</stageThreshold>
      <weakClassifiers>
        <_>
          <internalNodes>
            0 -1 145 201132981 775290870 -268582913 -319390723
            -1418123718 -1912635409 -1208713805 737590776</internalNodes>
          <leafValues>
            -2.1153846383094788e-01 7.2657114267349243e-01</leafValues></_>
        <_>
          <internalNodes>
            0 -1 86 1656672011 -1430257922 1069449077 -82309 268388072
            1341388159 368080847 -423805341</internalNodes>
          <leafValues>
            -3.6737313866615295e-01 6.6321396827697754e-01</leafValues></_>
        <_>
          <internalNodes>
            0 -1 117 -1012140849 -402803091 -806686985 1597914991
            653080171 -805521797 -1092045012 1888169895</internalNodes>
          <leafValues>
            -3.6452320218086243e-01 6.7152220010757446e-01</leafValues></_>
        <_>
          <internalNodes>
            0 -1 183 -1088598521 -411097421 1862156221 -1625276549
            -1214398946 -822116676 -1678041123 -643428963</internalNodes>
          <leafValues>
            -3.8224008679389954e-01 6.2568366527557373e-01</leafValues></_>
        <_>
          <internalNodes>
            0 -1 243 -1963602701 1223801836 1065238324 1828556724
            -1409305257 -293700228 1341497342 1610028361</internalNodes>
          <leafValues>
            -5.1703155040740967e-01 5.4359376430511475e-01</leafValues></_>
        <_>
          <internalNodes>
            0 -1 170 -14196809 2116742887 -286638661 859733859
            1106439414 -1619243009 -940262199 1004011333</internalNodes>
          <leafValues>
            -4.8496168851852417e-01 5.9578454494476318e-01</leafValues></_>
        <_>
          <internalNodes>
            0 -1 104 -1879703632 -541091 -268464154 -168890393
            -1091074963 -536875010 1979183085 -1889575736</internalNodes>
          <leafValues>
            -3.7694135308265686e-01 6.9875591993331909e-01</leafValues></_>
        <_>
          <internalNodes>
            0 -1 124 -1095505057 -1837727904 -106708 -1761702403
            -1250446010 -1359184295 -134447271 -470423852</internalNodes>
          <leafValues>
            -4.3263164162635803e-01 6.0530257225036621e-01</leafValues></_></weakClassifiers></_>
    <!-- stage 32 -->
    <_>
      <maxWeakCount>7</maxWeakCount>
      <stageThreshold>-7.6789492368698120e-01</stageThreshold>
      <weakClassifiers>
        <_>
          <internalNodes>
            0 -1 74 -457012016 918171571 2059246715 983809598
            -1309434743 92110655 -403324376 1406874771</internalNodes>
          <leafValues>
            -1.8992248177528381e-01 8.2899630069732666e-01</leafValues></_>
        <_>
          <internalNodes>
            0 -1 255 -84686243 -1917890609 -2687115 2075045501
            -595998896 802291711 1442533780 1702308087</internalNodes>
          <leafValues>
            -4.1264602541923523e-01 7.6763963699340820e-01</leafValues></_>
        <_>
          <internalNodes>
            0 -1 71 404943905 854011685 1987378556 657168952 -1395198436
            -188842354 1176505636 -1102601209</internalNodes>
          <leafValues>
            -4.0500426292419434e-01 7.9443508386611938e-01</leafValues></_>
        <_>
          <internalNodes>
            0 -1 259 -1200141783 250535653 2080337798 -2021970433
            2147398973 2071920636 1710650439 1277317087</internalNodes>
          <leafValues>
            -4.9304813146591187e-01 6.8288111686706543e-01</leafValues></_>
        <_>
          <internalNodes>
            0 -1 172 -899576615 1848229770 -1124156304 2008595572
            104767257 242677183 -427863014 -2102280450</internalNodes>
          <leafValues>
            -4.4727206230163574e-01 8.3333986997604370e-01</leafValues></_>
        <_>
          <internalNodes>
            0 -1 159 -1616410654 -1620378071 1845444016 -499712532
            -1258363184 -1342875787 1458814234 -200072811</internalNodes>
          <leafValues>
            -4.8566350340843201e-01 7.7398717403411865e-01</leafValues></_>
        <_>
          <internalNodes>
            0 -1 182 -470614707 -16892172 2138519468 1342111422
            2012675669 1073708927 653715445 314246504</internalNodes>
          <leafValues>
            -5.5269658565521240e-01 7.0276081562042236e-01</leafValues></_></weakClassifiers></_>
    <!-- stage 33 -->
    <_>
      <maxWeakCount>4</maxWeakCount>
      <stageThreshold>-8.6722022294998169e-01</stageThreshold>
      <weakClassifiers>
        <_>
          <internalNodes>
            0 -1 106 -1883498590 887422844 -1073823768 -1493193029
            784088988 116813565 2113738038 257494360</internalNodes>
          <leafValues>
            -5.0454545021057129e-01 8.9807474613189697e-01</leafValues></_>
        <_>
          <internalNodes>
            0 -1 15 171098994 -1485133208 -1343292394 -263247199
            783587028 1861498740 654068895 256050694</internalNodes>
          <leafValues>
            -5.2842092514038086e-01 9.5864486694335938e-01</leafValues></_>
        <_>
          <internalNodes>
            0 -1 209 606318088 623573865 -1359024291 2058546546
            -856939255 74743674 -1796860462 68163764</internalNodes>
          <leafValues>
            -6.8916642665863037e-01 8.4365397691726685e-01</leafValues></_>
        <_>
          <internalNodes>
            0 -1 166 -408811992 3564406 -1636892688 -2110734419
            -991952378 -466584707 108274923 -1301121231</internalNodes>
          <leafValues>
            -6.3215321302413940e-01 9.5340937376022339e-01</leafValues></_></weakClassifiers></_>
    <!-- stage 34 -->
    <_>
      <maxWeakCount>3</maxWeakCount>
      <stageThreshold>-6.1513727903366089e-01</stageThreshold>
      <weakClassifiers>
        <_>
          <internalNodes>
            0 -1 167 167772240 4096 -2147483640 1 0 -2147483648 8
            35651585</internalNodes>
          <leafValues>
            -7.9047620296478271e-01 1.</leafValues></_>
        <_>
          <internalNodes>
            0 -1 180 16924808 0 0 163840 512 268435456 -2147483136
            268435458</internalNodes>
          <leafValues>
            -8.0886065959930420e-01 1.</leafValues></_>
        <_>
          <internalNodes>
            0 -1 41 1074790440 65536 0 1074069568 -2147483648 524288 0
            65540</internalNodes>
          <leafValues>
            -8.0627667903900146e-01 1.</leafValues></_></weakClassifiers></_></stages>
  <features>
    <_>
      <rect>
        0 0 1 13</rect></_>
    <_>
      <rect>
        0 0 2 2</rect></_>
    <_>
      <rect>
        0 0 6 4</rect></_>
    <_>
      <rect>
        0 0 8 3</rect></_>
    <_>
      <rect>
        0 1 2 5</rect></_>
    <_>
      <rect>
        0 1 9 13</rect></_>
    <_>
      <rect>
        0 2 6 8</rect></_>
    <_>
      <rect>
        0 2 6 9</rect></_>
    <_>
      <rect>
        0 2 10 11</rect></_>
    <_>
      <rect>
        0 3 5 2</rect></_>
    <_>
      <rect>
        0 3 6 5</rect></_>
    <_>
      <rect>
        0 4 2 1</rect></_>
    <_>
      <rect>
        0 4 8 4</rect></_>
    <_>
      <rect>
        0 6 8 11</rect></_>
    <_>
      <rect>
        0 6 13 8</rect></_>
    <_>
      <rect>
        0 9 5 5</rect></_>
    <_>
      <rect>
        0 10 1 1</rect></_>
    <_>
      <rect>
        0 12 5 7</rect></_>
    <_>
      <rect>
        0 21 8 4</rect></_>
    <_>
      <rect>
        0 23 1 2</rect></_>
    <_>
      <rect>
        0 24 1 1</rect></_>
    <_>
      <rect>
        0 24 1 2</rect></_>
    <_>
      <rect>
        0 25 1 1</rect></_>
    <_>
      <rect>
        0 25 3 4</rect></_>
    <_>
      <rect>
        0 26 1 1</rect></_>
    <_>
      <rect>
        0 26 2 3</rect></_>
    <_>
      <rect>
        0 30 1 1</rect></_>
    <_>
      <rect>
        0 30 2 2</rect></_>
    <_>
      <rect>
        0 30 3 3</rect></_>
    <_>
      <rect>
        0 31 1 1</rect></_>
    <_>
      <rect>
        0 31 1 2</rect></_>
    <_>
      <rect>
        0 31 4 3</rect></_>
    <_>
      <rect>
        1 0 6 3</rect></_>
    <_>
      <rect>
        1 0 8 3</rect></_>
    <_>
      <rect>
        1 2 10 4</rect></_>
    <_>
      <rect>
        1 3 9 3</rect></_>
    <_>
      <rect>
        1 4 1 1</rect></_>
    <_>
      <rect>
        1 4 2 1</rect></_>
    <_>
      <rect>
        1 6 1 1</rect></_>
    <_>
      <rect>
        1 9 1 1</rect></_>
    <_>
      <rect>
        1 10 7 6</rect></_>
    <_>
      <rect>
        1 11 8 5</rect></_>
    <_>
      <rect>
        1 13 1 2</rect></_>
    <_>
      <rect>
        1 13 4 7</rect></_>
    <_>
      <rect>
        1 14 12 7</rect></_>
    <_>
      <rect>
        1 15 4 5</rect></_>
    <_>
      <rect>
        1 16 4 4</rect></_>
    <_>
      <rect>
        1 16 13 8</rect></_>
    <_>
      <rect>
        1 21 2 6</rect></_>
    <_>
      <rect>
        1 28 1 1</rect></_>
    <_>
      <rect>
        1 29 1 1</rect></_>
    <_>
      <rect>
        1 31 1 2</rect></_>
    <_>
      <rect>
        1 31 3 3</rect></_>
    <_>
      <rect>
        1 34 5 2</rect></_>
    <_>
      <rect>
        2 0 7 7</rect></_>
    <_>
      <rect>
        2 1 6 2</rect></_>
    <_>
      <rect>
        2 1 9 8</rect></_>
    <_>
      <rect>
        2 2 11 4</rect></_>
    <_>
      <rect>
        2 5 1 1</rect></_>
    <_>
      <rect>
        2 5 7 6</rect></_>
    <_>
      <rect>
        2 5 9 4</rect></_>
    <_>
      <rect>
        2 8 3 2</rect></_>
    <_>
      <rect>
        2 12 9 6</rect></_>
    <_>
      <rect>
        2 13 5 6</rect></_>
    <_>
      <rect>
        2 23 2 5</rect></_>
    <_>
      <rect>
        2 30 1 1</rect></_>
    <_>
      <rect>
        2 34 3 2</rect></_>
    <_>
      <rect>
        3 0 11 4</rect></_>
    <_>
      <rect>
        3 3 2 1</rect></_>
    <_>
      <rect>
        3 6 7 9</rect></_>
    <_>
      <rect>
        3 32 1 1</rect></_>
    <_>
      <rect>
        4 0 10 8</rect></_>
    <_>
      <rect>
        4 10 4 6</rect></_>
    <_>
      <rect>
        4 11 1 1</rect></_>
    <_>
      <rect>
        4 15 5 8</rect></_>
    <_>
      <rect>
        4 18 6 7</rect></_>
    <_>
      <rect>
        5 0 5 3</rect></_>
    <_>
      <rect>
        5 0 9 7</rect></_>
    <_>
      <rect>
        5 0 11 8</rect></_>
    <_>
      <rect>
        5 2 2 2</rect></_>
    <_>
      <rect>
        5 2 3 2</rect></_>
    <_>
      <rect>
        5 2 10 10</rect></_>
    <_>
      <rect>
        5 4 2 1</rect></_>
    <_>
      <rect>
        5 5 2 2</rect></_>
    <_>
      <rect>
        5 8 1 1</rect></_>
    <_>
      <rect>
        5 8 6 5</rect></_>
    <_>
      <rect>
        5 11 6 5</rect></_>
    <_>
      <rect>
        5 16 9 7</rect></_>
    <_>
      <rect>
        5 31 6 3</rect></_>
    <_>
      <rect>
        5 35 1 1</rect></_>
    <_>
      <rect>
        6 0 9 5</rect></_>
    <_>
      <rect>
        6 1 4 2</rect></_>
    <_>
      <rect>
        6 1 8 3</rect></_>
    <_>
      <rect>
        6 1 11 6</rect></_>
    <_>
      <rect>
        6 2 2 1</rect></_>
    <_>
      <rect>
        6 2 3 1</rect></_>
    <_>
      <rect>
        6 2 7 4</rect></_>
    <_>
      <rect>
        6 2 11 9</rect></_>
    <_>
      <rect>
        6 8 1 1</rect></_>
    <_>
      <rect>
        6 19 7 7</rect></_>
    <_>
      <rect>
        6 21 8 6</rect></_>
    <_>
      <rect>
        6 27 9 4</rect></_>
    <_>
      <rect>
        6 31 6 3</rect></_>
    <_>
      <rect>
        6 35 1 1</rect></_>
    <_>
      <rect>
        6 35 2 1</rect></_>
    <_>
      <rect>
        6 37 1 1</rect></_>
    <_>
      <rect>
        7 3 1 1</rect></_>
    <_>
      <rect>
        7 3 2 1</rect></_>
    <_>
      <rect>
        7 14 5 7</rect></_>
    <_>
      <rect>
        7 14 7 4</rect></_>
    <_>
      <rect>
        7 30 2 2</rect></_>
    <_>
      <rect>
        7 33 3 2</rect></_>
    <_>
      <rect>
        7 35 1 1</rect></_>
    <_>
      <rect>
        7 37 1 1</rect></_>
    <_>
      <rect>
        8 0 8 3</rect></_>
    <_>
      <rect>
        8 12 6 5</rect></_>
    <_>
      <rect>
        8 24 7 4</rect></_>
    <_>
      <rect>
        9 0 9 10</rect></_>
    <_>
      <rect>
        9 1 3 2</rect></_>
    <_>
      <rect>
        9 1 4 2</rect></_>
    <_>
      <rect>
        9 1 9 9</rect></_>
    <_>
      <rect>
        9 24 10 5</rect></_>
    <_>
      <rect>
        9 33 4 2</rect></_>
    <_>
      <rect>
        9 35 1 1</rect></_>
    <_>
      <rect>
        10 16 6 5</rect></_>
    <_>
      <rect>
        10 24 1 1</rect></_>
    <_>
      <rect>
        10 30 6 3</rect></_>
    <_>
      <rect>
        11 0 3 2</rect></_>
    <_>
      <rect>
        11 2 1 1</rect></_>
    <_>
      <rect>
        11 2 2 1</rect></_>
    <_>
      <rect>
        11 3 5 3</rect></_>
    <_>
      <rect>
        11 13 4 4</rect></_>
    <_>
      <rect>
        11 15 5 3</rect></_>
    <_>
      <rect>
        11 21 7 6</rect></_>
    <_>
      <rect>
        11 22 7 6</rect></_>
    <_>
      <rect>
        11 25 8 5</rect></_>
    <_>
      <rect>
        11 30 4 3</rect></_>
    <_>
      <rect>
        11 32 3 2</rect></_>
    <_>
      <rect>
        11 34 2 1</rect></_>
    <_>
      <rect>
        12 0 4 2</rect></_>
    <_>
      <rect>
        12 0 5 2</rect></_>
    <_>
      <rect>
        12 1 8 5</rect></_>
    <_>
      <rect>
        12 2 1 1</rect></_>
    <_>
      <rect>
        12 2 2 1</rect></_>
    <_>
      <rect>
        12 4 9 5</rect></_>
    <_>
      <rect>
        12 6 1 1</rect></_>
    <_>
      <rect>
        12 12 4 4</rect></_>
    <_>
      <rect>
        12 15 5 5</rect></_>
    <_>
      <rect>
        13 1 1 1</rect></_>
    <_>
      <rect>
        13 10 7 6</rect></_>
    <_>
      <rect>
        13 12 9 8</rect></_>
    <_>
      <rect>
        13 14 8 4</rect></_>
    <_>
      <rect>
        13 16 3 3</rect></_>
    <_>
      <rect>
        13 18 5 2</rect></_>
    <_>
      <rect>
        13 28 8 3</rect></_>
    <_>
      <rect>
        13 34 1 1</rect></_>
    <_>
      <rect>
        14 0 8 5</rect></_>
    <_>
      <rect>
        14 15 6 4</rect></_>
    <_>
      <rect>
        14 17 3 2</rect></_>
    <_>
      <rect>
        14 17 8 6</rect></_>
    <_>
      <rect>
        14 18 6 6</rect></_>
    <_>
      <rect>
        14 24 8 5</rect></_>
    <_>
      <rect>
        14 27 8 4</rect></_>
    <_>
      <rect>
        14 33 2 1</rect></_>
    <_>
      <rect>
        14 34 1 1</rect></_>
    <_>
      <rect>
        15 5 2 1</rect></_>
    <_>
      <rect>
        15 20 2 2</rect></_>
    <_>
      <rect>
        15 26 2 2</rect></_>
    <_>
      <rect>
        16 6 8 6</rect></_>
    <_>
      <rect>
        16 16 3 4</rect></_>
    <_>
      <rect>
        16 18 2 2</rect></_>
    <_>
      <rect>
        16 23 7 5</rect></_>
    <_>
      <rect>
        16 23 8 5</rect></_>
    <_>
      <rect>
        16 31 7 3</rect></_>
    <_>
      <rect>
        17 1 2 1</rect></_>
    <_>
      <rect>
        17 1 7 6</rect></_>
    <_>
      <rect>
        17 9 6 4</rect></_>
    <_>
      <rect>
        17 13 5 4</rect></_>
    <_>
      <rect>
        17 33 1 1</rect></_>
    <_>
      <rect>
        18 16 5 3</rect></_>
    <_>
      <rect>
        18 23 5 3</rect></_>
    <_>
      <rect>
        18 31 7 3</rect></_>
    <_>
      <rect>
        19 0 1 1</rect></_>
    <_>
      <rect>
        19 0 2 1</rect></_>
    <_>
      <rect>
        19 8 7 8</rect></_>
    <_>
      <rect>
        19 16 2 2</rect></_>
    <_>
      <rect>
        19 27 7 4</rect></_>
    <_>
      <rect>
        19 32 2 1</rect></_>
    <_>
      <rect>
        20 0 5 2</rect></_>
    <_>
      <rect>
        20 1 1 1</rect></_>
    <_>
      <rect>
        20 28 5 3</rect></_>
    <_>
      <rect>
        21 2 1 1</rect></_>
    <_>
      <rect>
        21 3 2 2</rect></_>
    <_>
      <rect>
        21 11 3 3</rect></_>
    <_>
      <rect>
        21 32 1 1</rect></_>
    <_>
      <rect>
        21 37 2 1</rect></_>
    <_>
      <rect>
        22 0 3 2</rect></_>
    <_>
      <rect>
        22 0 6 4</rect></_>
    <_>
      <rect>
        22 26 5 4</rect></_>
    <_>
      <rect>
        22 37 1 1</rect></_>
    <_>
      <rect>
        23 0 2 1</rect></_>
    <_>
      <rect>
        23 0 5 2</rect></_>
    <_>
      <rect>
        23 1 2 1</rect></_>
    <_>
      <rect>
        23 1 4 1</rect></_>
    <_>
      <rect>
        23 6 4 7</rect></_>
    <_>
      <rect>
        23 8 4 5</rect></_>
    <_>
      <rect>
        23 29 3 2</rect></_>
    <_>
      <rect>
        23 30 5 3</rect></_>
    <_>
      <rect>
        24 1 1 1</rect></_>
    <_>
      <rect>
        24 18 3 3</rect></_>
    <_>
      <rect>
        25 5 5 6</rect></_>
    <_>
      <rect>
        25 14 5 8</rect></_>
    <_>
      <rect>
        25 29 4 2</rect></_>
    <_>
      <rect>
        25 30 1 2</rect></_>
    <_>
      <rect>
        25 31 1 1</rect></_>
    <_>
      <rect>
        25 31 4 3</rect></_>
    <_>
      <rect>
        25 34 3 2</rect></_>
    <_>
      <rect>
        26 0 1 1</rect></_>
    <_>
      <rect>
        26 0 2 1</rect></_>
    <_>
      <rect>
        26 0 2 2</rect></_>
    <_>
      <rect>
        26 29 3 2</rect></_>
    <_>
      <rect>
        26 29 3 3</rect></_>
    <_>
      <rect>
        27 1 1 1</rect></_>
    <_>
      <rect>
        27 2 1 1</rect></_>
    <_>
      <rect>
        28 0 2 2</rect></_>
    <_>
      <rect>
        28 1 1 2</rect></_>
    <_>
      <rect>
        28 2 1 1</rect></_>
    <_>
      <rect>
        28 3 4 4</rect></_>
    <_>
      <rect>
        28 8 4 2</rect></_>
    <_>
      <rect>
        28 31 1 1</rect></_>
    <_>
      <rect>
        28 37 2 1</rect></_>
    <_>
      <rect>
        29 3 1 1</rect></_>
    <_>
      <rect>
        29 4 1 1</rect></_>
    <_>
      <rect>
        29 36 1 1</rect></_>
    <_>
      <rect>
        30 4 1 1</rect></_>
    <_>
      <rect>
        30 5 1 2</rect></_>
    <_>
      <rect>
        30 30 1 1</rect></_>
    <_>
      <rect>
        31 12 1 1</rect></_>
    <_>
      <rect>
        31 36 1 1</rect></_>
    <_>
      <rect>
        31 37 1 1</rect></_>
    <_>
      <rect>
        32 9 1 1</rect></_>
    <_>
      <rect>
        32 21 1 1</rect></_>
    <_>
      <rect>
        32 30 2 3</rect></_>
    <_>
      <rect>
        32 32 2 2</rect></_>
    <_>
      <rect>
        32 34 1 1</rect></_>
    <_>
      <rect>
        33 32 1 1</rect></_>
    <_>
      <rect>
        34 18 2 5</rect></_>
    <_>
      <rect>
        34 19 2 4</rect></_>
    <_>
      <rect>
        34 22 1 1</rect></_>
    <_>
      <rect>
        34 26 2 2</rect></_>
    <_>
      <rect>
        34 26 2 3</rect></_>
    <_>
      <rect>
        34 35 1 1</rect></_>
    <_>
      <rect>
        35 31 1 1</rect></_>
    <_>
      <rect>
        35 32 1 1</rect></_>
    <_>
      <rect>
        36 20 1 2</rect></_>
    <_>
      <rect>
        36 26 1 1</rect></_>
    <_>
      <rect>
        36 29 1 1</rect></_>
    <_>
      <rect>
        36 33 1 1</rect></_>
    <_>
      <rect>
        37 13 1 1</rect></_>
    <_>
      <rect>
        37 13 1 3</rect></_>
    <_>
      <rect>
        37 15 1 1</rect></_>
    <_>
      <rect>
        37 17 1 1</rect></_></features></cascade>
</opencv_storage>
