<?xml version="1.0"?>
<opencv_storage>
<cascade>
  <stageType>BOOST</stageType>
  <featureType>HAAR</featureType>
  <height>20</height>
  <width>20</width>
  <stageParams>
    <boostType>GAB</boostType>
    <minHitRate>9.9500000476837158e-01</minHitRate>
    <maxFalseAlarm>5.0000000000000000e-01</maxFalseAlarm>
    <weightTrimRate>9.4999999999999996e-01</weightTrimRate>
    <maxDepth>1</maxDepth>
    <maxWeakCount>100</maxWeakCount></stageParams>
  <featureParams>
    <maxCatCount>0</maxCatCount>
    <featSize>1</featSize>
    <mode>BASIC</mode></featureParams>
  <stageNum>10</stageNum>
  <stages>
    <!-- stage 0 -->
    <_>
      <maxWeakCount>1</maxWeakCount>
      <stageThreshold>8.8472622632980347e-01</stageThreshold>
      <weakClassifiers>
        <_>
          <internalNodes>
            0 -1 31 6.0835167765617371e-02</internalNodes>
          <leafValues>
            -9.9439775943756104e-01 8.8472622632980347e-01</leafValues></_></weakClassifiers></_>
    <!-- stage 1 -->
    <_>
      <maxWeakCount>2</maxWeakCount>
      <stageThreshold>-3.2512557506561279e-01</stageThreshold>
      <weakClassifiers>
        <_>
          <internalNodes>
            0 -1 24 -1.2090089730918407e-02</internalNodes>
          <leafValues>
            6.7609256505966187e-01 -9.8730158805847168e-01</leafValues></_>
        <_>
          <internalNodes>
            0 -1 10 -1.3170693069696426e-02</internalNodes>
          <leafValues>
            6.6217601299285889e-01 -8.3919799327850342e-01</leafValues></_></weakClassifiers></_>
    <!-- stage 2 -->
    <_>
      <maxWeakCount>3</maxWeakCount>
      <stageThreshold>-9.9652397632598877e-01</stageThreshold>
      <weakClassifiers>
        <_>
          <internalNodes>
            0 -1 1 1.3209555298089981e-02</internalNodes>
          <leafValues>
            -7.4142479896545410e-01 7.1692305803298950e-01</leafValues></_>
        <_>
          <internalNodes>
            0 -1 37 3.7787303328514099e-02</internalNodes>
          <leafValues>
            -7.1750581264495850e-01 5.9045320749282837e-01</leafValues></_>
        <_>
          <internalNodes>
            0 -1 29 -2.4050902575254440e-02</internalNodes>
          <leafValues>
            4.6240660548210144e-01 -9.0604496002197266e-01</leafValues></_></weakClassifiers></_>
    <!-- stage 3 -->
    <_>
      <maxWeakCount>4</maxWeakCount>
      <stageThreshold>-5.6993716955184937e-01</stageThreshold>
      <weakClassifiers>
        <_>
          <internalNodes>
            0 -1 38 3.7970580160617828e-02</internalNodes>
          <leafValues>
            -7.7325582504272461e-01 6.0555553436279297e-01</leafValues></_>
        <_>
          <internalNodes>
            0 -1 15 -9.2568211257457733e-03</internalNodes>
          <leafValues>
            4.1037067770957947e-01 -8.6649161577224731e-01</leafValues></_>
        <_>
          <internalNodes>
            0 -1 22 7.1173957549035549e-03</internalNodes>
          <leafValues>
            -5.5805563926696777e-01 6.9465631246566772e-01</leafValues></_>
        <_>
          <internalNodes>
            0 -1 40 2.3176339454948902e-03</internalNodes>
          <leafValues>
            -8.4729844331741333e-01 3.7515395879745483e-01</leafValues></_></weakClassifiers></_>
    <!-- stage 4 -->
    <_>
      <maxWeakCount>6</maxWeakCount>
      <stageThreshold>-9.2068779468536377e-01</stageThreshold>
      <weakClassifiers>
        <_>
          <internalNodes>
            0 -1 26 9.5133706927299500e-03</internalNodes>
          <leafValues>
            -7.6245212554931641e-01 3.4085777401924133e-01</leafValues></_>
        <_>
          <internalNodes>
            0 -1 6 -2.6696640998125076e-02</internalNodes>
          <leafValues>
            4.0932959318161011e-01 -6.9786971807479858e-01</leafValues></_>
        <_>
          <internalNodes>
            0 -1 39 1.8121235072612762e-02</internalNodes>
          <leafValues>
            -7.0871192216873169e-01 3.5764387249946594e-01</leafValues></_>
        <_>
          <internalNodes>
            0 -1 11 -3.2730288803577423e-02</internalNodes>
          <leafValues>
            4.8911610245704651e-01 -6.3962537050247192e-01</leafValues></_>
        <_>
          <internalNodes>
            0 -1 25 2.9234187677502632e-03</internalNodes>
          <leafValues>
            -4.9402701854705811e-01 5.5195558071136475e-01</leafValues></_>
        <_>
          <internalNodes>
            0 -1 13 -6.3171893358230591e-02</internalNodes>
          <leafValues>
            2.8021892905235291e-01 -9.1640883684158325e-01</leafValues></_></weakClassifiers></_>
    <!-- stage 5 -->
    <_>
      <maxWeakCount>6</maxWeakCount>
      <stageThreshold>-8.8574397563934326e-01</stageThreshold>
      <weakClassifiers>
        <_>
          <internalNodes>
            0 -1 42 6.8636620417237282e-03</internalNodes>
          <leafValues>
            -6.5806454420089722e-01 3.9593908190727234e-01</leafValues></_>
        <_>
          <internalNodes>
            0 -1 16 -2.5240110699087381e-04</internalNodes>
          <leafValues>
            2.9303184151649475e-01 -8.0785876512527466e-01</leafValues></_>
        <_>
          <internalNodes>
            0 -1 8 5.8239651843905449e-03</internalNodes>
          <leafValues>
            -3.6153605580329895e-01 6.9232594966888428e-01</leafValues></_>
        <_>
          <internalNodes>
            0 -1 5 -7.4534460902214050e-02</internalNodes>
          <leafValues>
            -8.0826961994171143e-01 3.9441752433776855e-01</leafValues></_>
        <_>
          <internalNodes>
            0 -1 14 2.5910492986440659e-03</internalNodes>
          <leafValues>
            -5.7613360881805420e-01 4.0805795788764954e-01</leafValues></_>
        <_>
          <internalNodes>
            0 -1 30 2.2120284847915173e-03</internalNodes>
          <leafValues>
            2.8792339563369751e-01 -7.9685223102569580e-01</leafValues></_></weakClassifiers></_>
    <!-- stage 6 -->
    <_>
      <maxWeakCount>5</maxWeakCount>
      <stageThreshold>-7.9256451129913330e-01</stageThreshold>
      <weakClassifiers>
        <_>
          <internalNodes>
            0 -1 44 -7.8115281648933887e-03</internalNodes>
          <leafValues>
            4.3768116831779480e-01 -5.5431753396987915e-01</leafValues></_>
        <_>
          <internalNodes>
            0 -1 4 -2.0674863457679749e-01</internalNodes>
          <leafValues>
            2.9472696781158447e-01 -7.8111237287521362e-01</leafValues></_>
        <_>
          <internalNodes>
            0 -1 34 2.4430979043245316e-02</internalNodes>
          <leafValues>
            -8.1763100624084473e-01 2.4109509587287903e-01</leafValues></_>
        <_>
          <internalNodes>
            0 -1 21 -1.8538035219535232e-03</internalNodes>
          <leafValues>
            7.0149004459381104e-01 -3.7410950660705566e-01</leafValues></_>
        <_>
          <internalNodes>
            0 -1 0 5.4090949706733227e-03</internalNodes>
          <leafValues>
            -3.1611886620521545e-01 7.4979960918426514e-01</leafValues></_></weakClassifiers></_>
    <!-- stage 7 -->
    <_>
      <maxWeakCount>7</maxWeakCount>
      <stageThreshold>-1.2408912181854248e+00</stageThreshold>
      <weakClassifiers>
        <_>
          <internalNodes>
            0 -1 3 4.0004838258028030e-02</internalNodes>
          <leafValues>
            -4.4567626714706421e-01 6.0474306344985962e-01</leafValues></_>
        <_>
          <internalNodes>
            0 -1 27 -1.9340323051437736e-03</internalNodes>
          <leafValues>
            4.5537039637565613e-01 -4.9721735715866089e-01</leafValues></_>
        <_>
          <internalNodes>
            0 -1 19 -3.2153472304344177e-02</internalNodes>
          <leafValues>
            2.4391117691993713e-01 -9.0834784507751465e-01</leafValues></_>
        <_>
          <internalNodes>
            0 -1 7 -1.0629659518599510e-02</internalNodes>
          <leafValues>
            3.4102800488471985e-01 -7.4292945861816406e-01</leafValues></_>
        <_>
          <internalNodes>
            0 -1 12 -4.4688679277896881e-02</internalNodes>
          <leafValues>
            -1. 1.3018959760665894e-01</leafValues></_>
        <_>
          <internalNodes>
            0 -1 35 -1.2710790149867535e-02</internalNodes>
          <leafValues>
            4.7645297646522522e-01 -4.5485222339630127e-01</leafValues></_>
        <_>
          <internalNodes>
            0 -1 18 -1.4204003848135471e-02</internalNodes>
          <leafValues>
            5.2568328380584717e-01 -4.3644055724143982e-01</leafValues></_></weakClassifiers></_>
    <!-- stage 8 -->
    <_>
      <maxWeakCount>5</maxWeakCount>
      <stageThreshold>-8.5307848453521729e-01</stageThreshold>
      <weakClassifiers>
        <_>
          <internalNodes>
            0 -1 43 1.7685972154140472e-02</internalNodes>
          <leafValues>
            -7.0161288976669312e-01 2.7631577849388123e-01</leafValues></_>
        <_>
          <internalNodes>
            0 -1 23 -3.4966409206390381e-02</internalNodes>
          <leafValues>
            2.8029084205627441e-01 -7.6263910531997681e-01</leafValues></_>
        <_>
          <internalNodes>
            0 -1 9 -1.7903716862201691e-01</internalNodes>
          <leafValues>
            2.3186622560024261e-01 -8.9892041683197021e-01</leafValues></_>
        <_>
          <internalNodes>
            0 -1 41 -4.2087410110980272e-04</internalNodes>
          <leafValues>
            -9.6928685903549194e-01 1.6142480075359344e-01</leafValues></_>
        <_>
          <internalNodes>
            0 -1 36 1.1207425035536289e-02</internalNodes>
          <leafValues>
            -6.7218953371047974e-01 3.0208748579025269e-01</leafValues></_></weakClassifiers></_>
    <!-- stage 9 -->
    <_>
      <maxWeakCount>6</maxWeakCount>
      <stageThreshold>-6.8944728374481201e-01</stageThreshold>
      <weakClassifiers>
        <_>
          <internalNodes>
            0 -1 2 2.1589890122413635e-02</internalNodes>
          <leafValues>
            -5.7714283466339111e-01 4.3502825498580933e-01</leafValues></_>
        <_>
          <internalNodes>
            0 -1 32 -1.5883293002843857e-02</internalNodes>
          <leafValues>
            -8.6744940280914307e-01 2.4194927513599396e-01</leafValues></_>
        <_>
          <internalNodes>
            0 -1 33 -4.9080201424658298e-03</internalNodes>
          <leafValues>
            2.7606636285781860e-01 -7.8006947040557861e-01</leafValues></_>
        <_>
          <internalNodes>
            0 -1 20 -2.3038528859615326e-02</internalNodes>
          <leafValues>
            -7.7268797159194946e-01 2.4844340980052948e-01</leafValues></_>
        <_>
          <internalNodes>
            0 -1 28 -1.0629517491906881e-03</internalNodes>
          <leafValues>
            5.4786127805709839e-01 -4.0285238623619080e-01</leafValues></_>
        <_>
          <internalNodes>
            0 -1 17 7.0910439826548100e-03</internalNodes>
          <leafValues>
            -3.6152866482734680e-01 6.4846539497375488e-01</leafValues></_></weakClassifiers></_></stages>
  <features>
    <_>
      <rects>
        <_>
          0 5 2 4 -1.</_>
        <_>
          1 5 1 4 2.</_></rects>
      <tilted>0</tilted></_>
    <_>
      <rects>
        <_>
          1 9 6 2 -1.</_>
        <_>
          3 9 2 2 3.</_></rects>
      <tilted>0</tilted></_>
    <_>
      <rects>
        <_>
          1 9 6 3 -1.</_>
        <_>
          3 9 2 3 3.</_></rects>
      <tilted>0</tilted></_>
    <_>
      <rects>
        <_>
          2 0 16 4 -1.</_>
        <_>
          2 2 16 2 2.</_></rects>
      <tilted>0</tilted></_>
    <_>
      <rects>
        <_>
          2 5 15 11 -1.</_>
        <_>
          7 5 5 11 3.</_></rects>
      <tilted>0</tilted></_>
    <_>
      <rects>
        <_>
          2 6 16 8 -1.</_>
        <_>
          2 10 16 4 2.</_></rects>
      <tilted>0</tilted></_>
    <_>
      <rects>
        <_>
          2 7 3 10 -1.</_>
        <_>
          2 12 3 5 2.</_></rects>
      <tilted>0</tilted></_>
    <_>
      <rects>
        <_>
          2 9 3 6 -1.</_>
        <_>
          2 12 3 3 2.</_></rects>
      <tilted>0</tilted></_>
    <_>
      <rects>
        <_>
          3 4 1 6 -1.</_>
        <_>
          3 6 1 2 3.</_></rects>
      <tilted>0</tilted></_>
    <_>
      <rects>
        <_>
          3 5 15 9 -1.</_>
        <_>
          8 5 5 9 3.</_></rects>
      <tilted>0</tilted></_>
    <_>
      <rects>
        <_>
          3 8 2 8 -1.</_>
        <_>
          3 12 2 4 2.</_></rects>
      <tilted>0</tilted></_>
    <_>
      <rects>
        <_>
          3 8 9 9 -1.</_>
        <_>
          6 8 3 9 3.</_></rects>
      <tilted>0</tilted></_>
    <_>
      <rects>
        <_>
          4 3 10 5 -1.</_>
        <_>
          9 3 5 5 2.</_></rects>
      <tilted>0</tilted></_>
    <_>
      <rects>
        <_>
          4 3 12 10 -1.</_>
        <_>
          4 8 12 5 2.</_></rects>
      <tilted>0</tilted></_>
    <_>
      <rects>
        <_>
          4 4 3 3 -1.</_>
        <_>
          4 5 3 1 3.</_></rects>
      <tilted>0</tilted></_>
    <_>
      <rects>
        <_>
          4 8 4 3 -1.</_>
        <_>
          6 8 2 3 2.</_></rects>
      <tilted>0</tilted></_>
    <_>
      <rects>
        <_>
          4 10 1 2 -1.</_>
        <_>
          4 11 1 1 2.</_></rects>
      <tilted>0</tilted></_>
    <_>
      <rects>
        <_>
          5 1 4 4 -1.</_>
        <_>
          5 1 2 2 2.</_>
        <_>
          7 3 2 2 2.</_></rects>
      <tilted>0</tilted></_>
    <_>
      <rects>
        <_>
          5 3 6 4 -1.</_>
        <_>
          5 3 3 2 2.</_>
        <_>
          8 5 3 2 2.</_></rects>
      <tilted>0</tilted></_>
    <_>
      <rects>
        <_>
          5 3 11 12 -1.</_>
        <_>
          5 7 11 4 3.</_></rects>
      <tilted>0</tilted></_>
    <_>
      <rects>
        <_>
          6 0 6 14 -1.</_>
        <_>
          6 0 3 7 2.</_>
        <_>
          9 7 3 7 2.</_></rects>
      <tilted>0</tilted></_>
    <_>
      <rects>
        <_>
          6 2 1 3 -1.</_>
        <_>
          6 3 1 1 3.</_></rects>
      <tilted>0</tilted></_>
    <_>
      <rects>
        <_>
          7 1 9 2 -1.</_>
        <_>
          7 2 9 1 2.</_></rects>
      <tilted>0</tilted></_>
    <_>
      <rects>
        <_>
          7 2 3 14 -1.</_>
        <_>
          7 9 3 7 2.</_></rects>
      <tilted>0</tilted></_>
    <_>
      <rects>
        <_>
          7 4 5 4 -1.</_>
        <_>
          7 6 5 2 2.</_></rects>
      <tilted>0</tilted></_>
    <_>
      <rects>
        <_>
          8 1 4 2 -1.</_>
        <_>
          8 2 4 1 2.</_></rects>
      <tilted>0</tilted></_>
    <_>
      <rects>
        <_>
          8 3 8 4 -1.</_>
        <_>
          8 3 4 2 2.</_>
        <_>
          12 5 4 2 2.</_></rects>
      <tilted>0</tilted></_>
    <_>
      <rects>
        <_>
          8 11 2 6 -1.</_>
        <_>
          8 14 2 3 2.</_></rects>
      <tilted>0</tilted></_>
    <_>
      <rects>
        <_>
          8 13 1 4 -1.</_>
        <_>
          8 15 1 2 2.</_></rects>
      <tilted>0</tilted></_>
    <_>
      <rects>
        <_>
          10 3 5 6 -1.</_>
        <_>
          10 6 5 3 2.</_></rects>
      <tilted>0</tilted></_>
    <_>
      <rects>
        <_>
          10 10 1 6 -1.</_>
        <_>
          10 13 1 3 2.</_></rects>
      <tilted>0</tilted></_>
    <_>
      <rects>
        <_>
          11 6 6 8 -1.</_>
        <_>
          14 6 3 8 2.</_></rects>
      <tilted>0</tilted></_>
    <_>
      <rects>
        <_>
          11 6 7 9 -1.</_>
        <_>
          11 9 7 3 3.</_></rects>
      <tilted>0</tilted></_>
    <_>
      <rects>
        <_>
          13 4 3 12 -1.</_>
        <_>
          13 8 3 4 3.</_></rects>
      <tilted>0</tilted></_>
    <_>
      <rects>
        <_>
          13 10 6 5 -1.</_>
        <_>
          15 10 2 5 3.</_></rects>
      <tilted>0</tilted></_>
    <_>
      <rects>
        <_>
          13 13 6 6 -1.</_>
        <_>
          13 13 3 3 2.</_>
        <_>
          16 16 3 3 2.</_></rects>
      <tilted>0</tilted></_>
    <_>
      <rects>
        <_>
          14 1 3 15 -1.</_>
        <_>
          15 1 1 15 3.</_></rects>
      <tilted>0</tilted></_>
    <_>
      <rects>
        <_>
          14 6 6 6 -1.</_>
        <_>
          16 6 2 6 3.</_></rects>
      <tilted>0</tilted></_>
    <_>
      <rects>
        <_>
          14 7 6 6 -1.</_>
        <_>
          16 7 2 6 3.</_></rects>
      <tilted>0</tilted></_>
    <_>
      <rects>
        <_>
          14 9 6 3 -1.</_>
        <_>
          16 9 2 3 3.</_></rects>
      <tilted>0</tilted></_>
    <_>
      <rects>
        <_>
          14 10 3 7 -1.</_>
        <_>
          15 10 1 7 3.</_></rects>
      <tilted>0</tilted></_>
    <_>
      <rects>
        <_>
          15 12 2 1 -1.</_>
        <_>
          16 12 1 1 2.</_></rects>
      <tilted>0</tilted></_>
    <_>
      <rects>
        <_>
          16 1 1 12 -1.</_>
        <_>
          16 5 1 4 3.</_></rects>
      <tilted>0</tilted></_>
    <_>
      <rects>
        <_>
          16 1 2 15 -1.</_>
        <_>
          16 6 2 5 3.</_></rects>
      <tilted>0</tilted></_>
    <_>
      <rects>
        <_>
          18 6 2 8 -1.</_>
        <_>
          19 6 1 8 2.</_></rects>
      <tilted>0</tilted></_></features></cascade>
</opencv_storage>
