<?xml version="1.0"?>
<opencv_storage>
<stage12>
  <maxWeakCount>5</maxWeakCount>
  <stageThreshold>-1.4169044494628906e+00</stageThreshold>
  <weakClassifiers>
    <_>
      <internalNodes>
        0 -1 15655 -5.3487144410610199e-02</internalNodes>
      <leafValues>
        4.3349754810333252e-01 -7.5167787075042725e-01</leafValues></_>
    <_>
      <internalNodes>
        0 -1 70079 -1.8389772623777390e-02</internalNodes>
      <leafValues>
        9.1351348161697388e-01 -3.8254442811012268e-01</leafValues></_>
    <_>
      <internalNodes>
        0 -1 67374 -1.4540830161422491e-03</internalNodes>
      <leafValues>
        6.4251196384429932e-01 -5.3076618909835815e-01</leafValues></_>
    <_>
      <internalNodes>
        0 -1 73543 8.2232262939214706e-03</internalNodes>
      <leafValues>
        -5.6181126832962036e-01 5.6760722398757935e-01</leafValues></_>
    <_>
      <internalNodes>
        0 -1 20005 4.0269596502184868e-03</internalNodes>
      <leafValues>
        -3.7528014183044434e-01 7.2284257411956787e-01</leafValues></_></weakClassifiers></stage12>
</opencv_storage>
