<?xml version="1.0"?>
<opencv_storage>
<stage9>
  <maxWeakCount>6</maxWeakCount>
  <stageThreshold>-6.8944728374481201e-01</stageThreshold>
  <weakClassifiers>
    <_>
      <internalNodes>
        0 -1 12642 2.1589890122413635e-02</internalNodes>
      <leafValues>
        -5.7714283466339111e-01 4.3502825498580933e-01</leafValues></_>
    <_>
      <internalNodes>
        0 -1 64297 -1.5883293002843857e-02</internalNodes>
      <leafValues>
        -8.6744940280914307e-01 2.4194927513599396e-01</leafValues></_>
    <_>
      <internalNodes>
        0 -1 69717 -4.9080201424658298e-03</internalNodes>
      <leafValues>
        2.7606636285781860e-01 -7.8006947040557861e-01</leafValues></_>
    <_>
      <internalNodes>
        0 -1 40020 -2.3038528859615326e-02</internalNodes>
      <leafValues>
        -7.7268797159194946e-01 2.4844340980052948e-01</leafValues></_>
    <_>
      <internalNodes>
        0 -1 54048 -1.0629517491906881e-03</internalNodes>
      <leafValues>
        5.4786127805709839e-01 -4.0285238623619080e-01</leafValues></_>
    <_>
      <internalNodes>
        0 -1 34811 7.0910439826548100e-03</internalNodes>
      <leafValues>
        -3.6152866482734680e-01 6.4846539497375488e-01</leafValues></_></weakClassifiers></stage9>
</opencv_storage>
